tree
version=v2
num_class=1
num_tree_per_iteration=1
label_index=0
max_feature_idx=15
objective=binary sigmoid:1
feature_names=register_type device_type launch_day_mean launch_day_std launch_day_skew last_launch_day_cut_max_day act_count_in_last_3_day act_count_in_last_5_day activity_day_std activity_day_cut_max_day 1_page_count 3_page_count_div_sum 0_action_count 3_action_count_div_sum max_hot_auth activity_day_diff_ske
feature_infos=[0:11] [0:93538] [0.0625:1] [0.70710678118654757:10.606601717798213] [-2.0922862349031397:2.0922862349031419] [0:15] [0:4387] [0:6335] [0:7.7781745930520225] [0:15] [0:5278] [0.00017061934823408976:1] [0:11130] [0.00010895619960775768:0.75] [1:27620] [-19.748417658131537:22.759613353482081]
tree_sizes=895 900 897 898 896 905 901 905 907 909 907 910 906 917 905 910 909 913 909 917 914 911 912 908 908 904 915 907 917 917 915 922 908 919 908 915 916 920 916 910 916 915 906 901 906 920 911 913 910 904 908 907 890 898 902 895 909 895

Tree=0
num_leaves=10
num_cat=0
split_feature=2 9 6 8 3 3 2 5 7
split_gain=19858.5 2173.31 1630.36 717.579 508.386 431.691 383.111 174.916 162.275
threshold=0.34523809523809529 5.5000000000000009 14.500000000000002 0.51452637522790556 0.85355339059327384 2.6380905929797658 0.60769230769230786 1.5000000000000002 1.0000000180025095e-35
decision_type=10 8 10 10 10 10 10 10 10
left_child=1 3 5 -1 -3 8 -4 -7 -2
right_child=2 4 6 -5 -6 7 -8 -9 -10
leaf_value=-0.068090832509274002 -0.034797309326951062 -0.15433968915833432 0.11930871514335942 0.039903327593131727 -0.077726763897073614 0.14989813364956381 0.17693281778576128 0.056170741345921864 0.040325356199987519
leaf_count=6925 1704 17764 7240 3818 4304 1817 12729 1418 3539
internal_value=0 -1.0603 1.22296 -0.322569 -1.41944 0.488136 1.53494 1.06268 0.133635
internal_count=61258 32811 28447 10743 22068 8478 19969 3235 5243
shrinkage=1


Tree=1
num_leaves=10
num_cat=0
split_feature=2 9 2 3 6 5 3 6 7
split_gain=16161.9 1785.71 1380.59 657.649 501.824 344.887 326.677 180.361 171.539
threshold=0.34523809523809529 6.5000000000000009 0.51666666666666672 1.1454972243679029 14.500000000000002 1.5000000000000002 0.85355339059327384 50.500000000000007 1.0000000180025095e-35
decision_type=10 8 10 10 10 10 10 10 10
left_child=1 3 4 7 8 -4 -3 -1 -2
right_child=2 6 5 -5 -6 -7 -8 -9 -10
leaf_value=-0.082773145721942207 -0.034807982458183763 -0.14355301315883326 0.15458028764772719 0.024173471641710097 0.09818924583588641 0.048118920256320703 -0.078306833152057428 0.015402619484804586 0.03898751859197111
leaf_count=6625 1925 16928 15896 4653 5647 1322 3760 845 3657
internal_value=0 -0.957991 1.10629 -0.348535 0.560523 1.46372 -1.31652 -0.716616 0.135298
internal_count=61258 32811 28447 12123 11229 17218 20688 7470 5582
shrinkage=0.1


Tree=2
num_leaves=10
num_cat=0
split_feature=2 9 2 8 6 3 5 3 6
split_gain=13256.8 1504.48 1166.48 485.515 412.611 354.324 293.569 160.53 130.475
threshold=0.34523809523809529 5.5000000000000009 0.51666666666666672 0.53487670696494793 14.500000000000002 0.85355339059327384 1.5000000000000002 3.2682629080616077 55.500000000000007
decision_type=10 8 10 10 10 10 10 10 10
left_child=1 3 4 8 7 -3 -4 -2 -1
right_child=2 5 6 -5 -6 -7 -8 -9 -10
leaf_value=-0.067278164101675003 -0.0045643208709396626 -0.1301377699210062 0.14182553324631661 0.031756973750250321 0.089138861136466727 -0.065899642143959478 0.043420549362767846 0.08099556874848779 0.018403225813835879
leaf_count=6146 4486 17764 15896 3792 5647 4304 1322 1096 805
internal_value=0 -0.871323 1.00866 -0.257995 0.507044 -1.17445 1.34127 0.121924 -0.573152
internal_count=61258 32811 28447 10743 11229 22068 17218 5582 6951
shrinkage=0.1


Tree=3
num_leaves=10
num_cat=0
split_feature=2 9 2 3 6 8 3 3 2
split_gain=10937.6 1287.67 1009.46 435.618 414.901 347.084 152.084 136.623 130.453
threshold=0.34523809523809529 3.5000000000000004 0.60769230769230786 1.0000000180025095e-35 11.500000000000002 0.37553380809940551 2.0368220676663866 1.3526040055544506 0.75961538461538469
decision_type=10 8 10 10 10 10 10 8 10
left_child=1 5 4 -3 6 -1 -2 -6 -4
right_child=2 3 8 -5 7 -7 -8 -9 -10
leaf_value=-0.043471144584644968 -0.01433783682506571 -0.12046774809047277 0.11073146023904715 -0.062763659556707249 0.027853720908142917 0.043099443007197293 0.049045506250226023 0.098121934076306885 0.14939719588920802
leaf_count=4598 3293 17296 7270 7786 1389 3131 2836 6227 7432
internal_value=0 -0.796404 0.925088 -1.02258 0.535444 -0.0826378 0.14876 0.85302 1.30224
internal_count=61258 32811 28447 25082 13745 7729 6129 7616 14702
shrinkage=0.1


Tree=4
num_leaves=10
num_cat=0
split_feature=2 9 6 5 3 5 3 3 12
split_gain=9057.26 1139.79 904.927 436.845 282.471 242.418 166.97 163.399 138.596
threshold=0.34523809523809529 8.5000000000000018 22.500000000000004 1.5000000000000002 2.6380905929797658 1.0000000180025095e-35 1.3526040055544506 1.8971835497770528 244.50000000000003
decision_type=10 8 10 10 10 10 10 10 10
left_child=1 3 4 -1 -2 8 -5 -3 -4
right_child=2 7 5 6 -6 -7 -8 -9 -10
leaf_value=0.030328598150396548 0.0093196779883890791 -0.11419646892033981 0.097844208863614834 -0.068304868952621667 0.08016570536090338 0.06372772253600488 -0.015390849200626583 -0.045557913390034975 0.13913547916442687
leaf_count=3496 6085 16586 5486 7621 3751 3469 3553 1555 9656
internal_value=0 -0.72998 0.851751 -0.315238 0.359281 1.125 -0.51189 -1.08044 1.23992
internal_count=61258 32811 28447 14670 9836 18611 11174 18141 15142
shrinkage=0.1


Tree=5
num_leaves=10
num_cat=0
split_feature=5 12 2 4 8 5 9 14 14
split_gain=7638.38 1206.94 1164.1 263.704 219.551 215.571 205.949 164.634 104.901
threshold=1.5000000000000002 51.500000000000007 0.22649572649572655 1.2933427807333933 2.1752584846335226 1.0000000180025095e-35 10.500000000000002 12.500000000000002 19.500000000000004
decision_type=8 10 10 8 10 10 8 10 10
left_child=1 3 6 -1 8 -3 -2 -5 -4
right_child=2 5 4 7 -6 -7 -8 -9 -10
leaf_value=0.081124507883603161 -0.071742290738009709 0.12042975155057734 -0.078582914103381543 -0.047253713687511079 0.040825624892451354 0.065783206561289234 -0.11230036065200411 0.020613134101433225 -0.018446354564692409
leaf_count=2030 9343 15833 1481 2299 2388 3842 12841 4141 7060
internal_value=0 0.801128 -0.668457 0.164029 -0.132989 1.09301 -0.948179 -0.0357706 -0.285094
internal_count=61258 28145 33113 8470 10929 19675 22184 6440 8541
shrinkage=0.1


Tree=6
num_leaves=10
num_cat=0
split_feature=5 4 2 12 8 9 5 9 9
split_gain=6355.11 1060.43 999.482 367.192 187.789 178.327 136.598 119.214 102.911
threshold=1.5000000000000002 1.140493230554825 0.21825396825396828 20.500000000000004 2.1752584846335226 10.500000000000002 1.0000000180025095e-35 1.0000000180025095e-35 5.5000000000000009
decision_type=8 8 10 10 10 8 10 10 8
left_child=1 6 5 -3 8 -2 -1 -5 -4
right_child=2 3 4 7 -6 -7 -8 -9 -10
leaf_value=0.1175689144926475 -0.066504684235078479 -0.017738714011538786 -0.010625937570666818 0.078225817084139559 0.037125153656530692 -0.10515544486502303 0.069988444083021156 0.016275424210959021 -0.0562897411339928
leaf_count=13987 9014 4687 5680 4306 2396 12805 3281 1884 3218
internal_value=0 0.741558 -0.614589 0.24607 -0.131684 -0.886218 1.08004 0.583968 -0.267805
internal_count=61258 28145 33113 10877 11294 21819 17268 6190 8898
shrinkage=0.1


Tree=7
num_leaves=10
num_cat=0
split_feature=2 3 2 9 7 6 7 5 12
split_gain=5372.64 754.5 698.599 342.619 307.777 124.976 116.963 106.136 105.69
threshold=0.34523809523809529 1.8971835497770528 0.67708333333333337 9.5000000000000018 24.500000000000004 11.500000000000002 20.500000000000004 1.0000000180025095e-35 574.50000000000011
decision_type=10 10 10 8 10 10 10 10 8
left_child=1 3 4 6 8 -3 -1 -6 -2
right_child=2 5 -4 -5 7 -7 -8 -9 -10
leaf_value=-0.059793609200069535 0.022111613756472068 -0.011800902053095218 0.11396241101443223 -0.096275735168467547 0.083162742007078239 0.054319850501593485 -0.011371602921050494 0.040965901213707495 -0.043113061272486042
leaf_count=8571 5283 4808 10828 15142 6804 1547 2743 4282 1250
internal_value=0 -0.577039 0.683941 -0.741826 0.438042 0.0436458 -0.475785 0.658985 0.0940368
internal_count=61258 32811 28447 26456 17619 6355 11314 11086 6533
shrinkage=0.1


Tree=8
num_leaves=10
num_cat=0
split_feature=5 4 2 12 12 3 5 9 7
split_gain=4529.61 840.081 745.813 246.001 164.29 141.237 121.382 93.6774 92.4247
threshold=1.5000000000000002 1.140493230554825 0.21825396825396828 18.500000000000004 6.5000000000000009 3.0577757558036844 1.0000000180025095e-35 1.0000000180025095e-35 7.5000000000000009
decision_type=8 8 10 10 10 10 10 10 10
left_child=1 6 4 -3 -2 8 -1 -5 -4
right_child=2 3 5 7 -6 -7 -8 -9 -10
leaf_value=0.10611959675095184 -0.094012756875148984 -0.015304673495125787 -0.043569706225454218 0.066150699644268451 -0.055897859582737186 0.029628132354634587 0.060163503647900164 0.011668579987909683 -0.001127383507566609
leaf_count=13987 12619 4506 4709 4402 9200 2671 3281 1969 3914
internal_value=0 0.646373 -0.527625 0.20498 -0.77308 -0.111617 0.964916 0.479328 -0.239371
internal_count=61258 28145 33113 10877 21819 11294 17268 6371 8623
shrinkage=0.1


Tree=9
num_leaves=10
num_cat=0
split_feature=2 9 2 7 3 2 12 9 14
split_gain=3795.21 586.079 586.016 224.143 194.123 120.196 114.151 109.06 73.1947
threshold=0.34523809523809529 8.5000000000000018 0.67708333333333337 1.0000000180025095e-35 1.4708693970125208 0.11805555555555557 50.500000000000007 1.0000000180025095e-35 3101.0000000000005
decision_type=10 8 10 10 10 10 10 10 10
left_child=1 4 3 -2 8 -3 -5 -8 -1
right_child=2 5 -4 6 -6 -7 7 -9 -10
leaf_value=-0.055361000216797129 -0.02145711354230383 -0.092712612622754154 0.10375532561641823 0.019654622973644616 0.012063802463534168 -0.055642430747831477 0.081506067580016883 0.037903569387536418 -0.019000894480467413
leaf_count=4957 2300 11081 10828 4550 5041 7060 5681 5088 4672
internal_value=0 -0.494 0.592975 0.369393 -0.198613 -0.775143 0.46724 0.592752 -0.375299
internal_count=61258 32811 28447 17619 14670 18141 15319 10769 9629
shrinkage=0.1


Tree=10
num_leaves=10
num_cat=0
split_feature=5 4 2 9 12 2 5 9 7
split_gain=3245.32 676.159 574.484 182.903 136.99 119.756 103.052 91.3056 85.2752
threshold=1.5000000000000002 -1.3896361387064926 0.17424242424242428 1.0000000180025095e-35 21.500000000000004 0.75961538461538469 4.5000000000000009 12.500000000000002 52.500000000000007
decision_type=8 10 10 8 10 10 10 8 10
left_child=1 3 7 8 -4 -3 -6 -2 -1
right_child=2 5 4 -5 6 -7 -8 -9 -10
leaf_value=0.016586122937853283 -0.056711848313869023 0.070933591737394205 -0.045194512974977646 -0.014268904834628244 0.012396732530431999 0.11028448288174419 -0.031796085290075764 -0.088926208089312619 0.068845252156464073
leaf_count=2783 8078 10325 5038 4628 6394 7365 3430 10173 3044
internal_value=0 0.565422 -0.453992 0.155424 -0.164866 0.85791 -0.0272594 -0.737854 0.416766
internal_count=61258 28145 33113 10455 14862 17690 9824 18251 5827
shrinkage=0.1


Tree=11
num_leaves=10
num_cat=0
split_feature=5 4 9 8 14 5 5 5 3
split_gain=2708.22 603.569 504.421 177.863 173.441 106.81 78.1829 75.0714 66.8058
threshold=1.5000000000000002 0.93507266061723593 9.5000000000000018 0.31844693546056513 26.500000000000004 1.0000000180025095e-35 1.0000000180025095e-35 3.5000000000000004 1.8971835497770528
decision_type=8 8 8 10 10 10 10 10 10
left_child=1 5 3 -2 -3 -1 -6 -5 -4
right_child=2 4 8 7 6 -7 -8 -9 -10
leaf_value=0.09313496851119904 -0.041528665835526189 -0.029895920555187295 -0.078399228775339183 0.01940176534051874 0.045638108214367867 0.04721305652466868 0.0025964139670166088 -0.018066651150168755 -0.023875531206986208
leaf_count=13687 8449 2601 14609 4480 6093 3140 2624 4480 1095
internal_value=0 0.525146 -0.417994 -0.187582 0.164729 0.830885 0.313522 0.00857775 -0.737355
internal_count=61258 28145 33113 17409 11318 16827 8717 8960 15704
shrinkage=0.1


Tree=12
num_leaves=10
num_cat=0
split_feature=2 2 14 5 9 3 3 5 3
split_gain=2261.75 589.219 303.281 151.795 118.576 113.312 106.105 86.828 66.8133
threshold=0.30384615384615393 0.51666666666666672 3169.0000000000005 1.0000000180025095e-35 6.5000000000000009 1.5543320308680684 3.7805894051650402 2.5000000000000004 3.2682629080616077
decision_type=10 10 10 10 8 10 10 10 10
left_child=2 4 6 5 8 -3 -1 -4 -2
right_child=1 3 7 -5 -6 -7 -8 -9 -10
leaf_value=-0.068662954069217227 0.01282237389705952 0.055080031551942688 0.019656830635217726 0.03326315795146171 -0.029031303061012738 0.10293584030654629 -0.00029179281153478282 -0.027644754447588512 0.048494308493166681
leaf_count=17984 9829 4373 2168 3341 2430 9504 1035 7380 3214
internal_value=0 0.406358 -0.462544 0.739213 0.130657 0.867561 -0.639715 -0.157738 0.210863
internal_count=61258 32691 28567 17218 15473 13877 19019 9548 13043
shrinkage=0.1


Tree=13
num_leaves=10
num_cat=0
split_feature=6 3 12 2 5 9 9 14 12
split_gain=1935.57 503.859 317.134 183.892 136.733 105.77 73.1241 45.3751 44.1631
threshold=11.500000000000002 1.1454972243679029 208.50000000000003 0.13809523809523813 3.5000000000000004 1.0000000180025095e-35 1.0000000180025095e-35 3316.5000000000005 73.500000000000014
decision_type=10 10 10 10 10 10 10 10 10
left_child=1 3 6 7 -3 -4 8 -1 -2
right_child=2 4 5 -5 -6 -7 -8 -9 -10
leaf_value=-0.077075335937264941 0.024025707012483549 0.025146325424448904 0.094226470016922248 -0.031054948161689334 -0.020735155659218834 0.045685303626667603 0.0068583968680260739 -0.042119081648943429 0.063753812634863335
leaf_count=11400 2802 6461 10388 11623 5124 3127 4549 2558 3226
internal_value=0 -0.308536 0.532321 -0.500668 0.0441354 0.801333 0.260225 -0.701609 0.437372
internal_count=61258 37166 24092 25581 11585 13515 10577 13958 6028
shrinkage=0.1


Tree=14
num_leaves=10
num_cat=0
split_feature=2 9 2 3 7 2 6 5 1
split_gain=1637.39 390.538 318.809 115.936 97.9807 69.7837 60.2346 56.7572 51.1089
threshold=0.40833333333333338 9.5000000000000018 0.67708333333333337 2.0368220676663866 24.500000000000004 0.11805555555555557 58.500000000000007 1.5000000000000002 137.50000000000003
decision_type=10 8 10 10 10 10 10 10 2
left_child=1 3 4 6 -2 -3 -1 -4 -6
right_child=2 5 7 -5 8 -7 -8 -9 -10
leaf_value=-0.028524887629322829 0.0059633914108069078 -0.073466849740154466 0.088426648191092874 0.010679880604187363 0.053661082538299792 -0.041237841890574931 0.02330334267146366 -0.0061270966332669695 0.017128041523010895
leaf_count=11415 5174 10184 10522 6608 6835 6296 1014 306 2904
internal_value=0 -0.30341 0.468141 -0.112573 0.280863 -0.597018 -0.237681 0.842807 0.427063
internal_count=61258 35517 25741 19037 14913 16480 12429 10828 9739
shrinkage=0.1


Tree=15
num_leaves=10
num_cat=0
split_feature=5 12 2 9 12 11 1 2 8
split_gain=1391.76 409.049 311.296 100.593 91.7355 87.2947 55.3053 51.2701 48.2876
threshold=1.5000000000000002 113.50000000000001 0.12916666666666668 1.0000000180025095e-35 11.500000000000002 0.83350658350658369 285.50000000000006 0.80625000000000013 4.5666765096590503
decision_type=8 10 10 10 10 8 2 10 8
left_child=1 5 8 7 -4 -1 -6 -3 -2
right_child=2 3 4 -5 6 -7 -8 -9 -10
leaf_value=0.02140278433297731 -0.045986962103149898 0.069363245096027412 -0.037921577248700142 0.035934901642209194 0.0022300886103355068 -0.024021393005016382 -0.032148665443939455 0.10524794544074262 -0.075101666694168595
leaf_count=9453 6758 7735 5988 3527 10091 2426 2574 5004 7702
internal_value=0 0.39965 -0.308636 0.692471 -0.142799 0.116308 -0.0473565 0.817019 -0.604513
internal_count=61258 28145 33113 16266 18653 11879 12665 12739 14460
shrinkage=0.1


Tree=16
num_leaves=10
num_cat=0
split_feature=5 2 12 3 14 4 2 7 7
split_gain=1176.64 384.331 262.151 116.42 73.4259 60.2121 58.7297 51.0255 50.7645
threshold=1.0000000180025095e-35 0.17424242424242428 101.50000000000001 2.1888013410388165 5.5000000000000009 -1.4556281317875757 0.80625000000000013 20.500000000000004 18.500000000000004
decision_type=8 10 10 10 10 10 10 10 10
left_child=2 4 5 8 -2 -1 -4 -5 -3
right_child=1 3 6 7 -6 -7 -8 -9 -10
leaf_value=0.0059143036732598169 -0.067181673143612924 -0.026278824019199083 0.062569895059780209 0.0018368084581306008 -0.035468303378278575 0.0500136475976296 0.10072883859877438 0.03666089974953269 -4.7312823575576874e-05
leaf_count=4863 9237 8489 8566 4094 9183 2527 5281 3565 5453
internal_value=0 -0.213839 0.496317 -0.0380364 -0.497461 0.186801 0.749455 0.170868 -0.155152
internal_count=61258 40021 21237 21601 18420 7390 13847 7659 13942
shrinkage=0.1


Tree=17
num_leaves=10
num_cat=0
split_feature=2 9 2 3 14 7 3 9 4
split_gain=991.629 269.492 239.635 94.1699 78.8594 61.252 61.1082 45.9317 34.8796
threshold=0.43303571428571436 9.5000000000000018 0.75961538461538469 3.1721290877539219 3169.0000000000005 54.500000000000007 2.1407836215144651 1.0000000180025095e-35 -0.43693449214931801
decision_type=10 8 10 10 10 10 10 10 8
left_child=1 4 3 5 -1 8 -3 -6 -2
right_child=2 6 -4 -5 7 -7 -8 -9 -10
leaf_value=-0.024899277065281299 0.072853809571418779 -0.054198391400161611 0.087178344333254124 0.058875724850232881 0.042123989658582543 0.034356254573288524 0.0012646790010994533 -0.001627358459651413 -0.00070536544023670864
leaf_count=8029 362 15494 7432 4392 1387 7186 1001 10327 5648
internal_value=0 -0.232707 0.392346 0.269103 -0.0804828 0.177791 -0.49369 0.0287453 0.0305475
internal_count=61258 36238 25020 17588 19743 13196 16495 11714 6010
shrinkage=0.1


Tree=18
num_leaves=10
num_cat=0
split_feature=5 5 12 4 12 11 1 0 14
split_gain=849.125 296.245 230.972 112.018 79.7391 75.0036 46.1158 33.3542 39.6224
threshold=1.0000000180025095e-35 5.5000000000000009 314.50000000000006 1.696721537088423 6.5000000000000009 0.78964130070398941 154.50000000000003 2.5000000000000004 15.500000000000002
decision_type=8 8 10 8 10 8 2 2 10
left_child=2 3 5 6 -3 -1 -2 8 -5
right_child=1 4 -4 7 -6 -7 -8 -9 -10
leaf_value=0.03335605063809792 0.025172394415440908 -0.060564724693697052 0.08269769632749728 -0.033098290869507115 -0.027503483921155411 -0.016644453040067005 -0.0094909038944913475 -0.057192779123528825 -0.0047260441127909402
leaf_count=10454 6548 10125 9164 3868 8548 1619 2399 911 7622
internal_value=0 -0.182151 0.43619 -0.0227921 -0.430341 0.248964 0.158445 -0.158294 -0.127399
internal_count=61258 40021 21237 21348 18673 12073 8947 12401 11490
shrinkage=0.1


Tree=19
num_leaves=10
num_cat=0
split_feature=6 2 12 3 9 12 5 2 0
split_gain=719.433 214.898 200.981 92.9789 59.9219 49.8706 47.426 40.7583 36.0193
threshold=11.500000000000002 0.11805555555555557 368.50000000000006 2.0368220676663866 1.0000000180025095e-35 51.500000000000007 1.0000000180025095e-35 0.39230769230769241 2.5000000000000004
decision_type=10 10 10 10 10 10 10 10 2
left_child=1 -1 5 8 -4 -2 7 -5 -3
right_child=2 3 4 6 -6 -7 -8 -9 -10
leaf_value=-0.050720145206320101 -0.00015330273751077748 -0.016634252065095424 0.084425858974216964 -0.00047976616048940623 0.03493568177971252 0.029616568241077286 0.00065717229562971095 0.068519294363855288 -0.056666841079986444
leaf_count=12355 3951 14695 8014 632 1963 10164 6870 1350 1264
internal_value=0 -0.19299 0.355403 -0.0917686 0.697551 0.196793 0.081094 0.410149 -0.197019
internal_count=61258 37166 24092 24811 9977 14115 8852 1982 15959
shrinkage=0.1


Tree=20
num_leaves=10
num_cat=0
split_feature=2 5 2 14 0 15 4 10 9
split_gain=617.313 256.738 111.91 83.9046 93.5562 70.1575 52.8454 41.4302 36.6051
threshold=0.51666666666666672 5.5000000000000009 0.80625000000000013 19.500000000000004 2.5000000000000004 -8.0077615855475042 -1.0000000180025095e-35 2.5000000000000004 1.0000000180025095e-35
decision_type=10 8 10 10 2 10 8 10 8
left_child=1 3 6 -1 7 -3 -2 -5 -8
right_child=2 5 -4 4 -6 -7 8 -9 -10
leaf_value=-0.023391300631637871 0.06976057723879589 -0.056858498493458122 0.086947735602696627 0.001948042158151605 -0.066723798398494752 -0.024364918285324548 0.040560063939086802 0.022861841056126393 0.0067996406109203378
leaf_count=6098 2534 8874 5884 11262 763 9766 5704 7277 3096
internal_value=0 -0.125425 0.474767 0.00290076 0.0692427 -0.371713 0.344219 0.0996921 0.252591
internal_count=61258 44040 17218 25400 19302 18640 11334 18539 8800
shrinkage=0.1


Tree=21
num_leaves=10
num_cat=0
split_feature=5 2 4 3 2 14 1 14 14
split_gain=532.732 178.626 174.843 66.1221 52.711 47.3089 44.637 39.4953 37.0027
threshold=1.0000000180025095e-35 0.12916666666666668 0.33083181470590051 3.0577757558036844 0.80625000000000013 34.500000000000007 32.500000000000007 28.500000000000004 4758.0000000000009
decision_type=8 10 8 10 10 10 2 10 10
left_child=2 8 4 6 -1 -4 7 -3 -2
right_child=1 3 5 -5 -6 -7 -8 -9 -10
leaf_value=0.048668247570162165 -0.047315689986442533 -0.026979334612512448 -0.017250616445438686 0.015101453281190834 0.090869113919171823 0.023513322155549743 -0.020222839737893711 0.0092155205489592214 -0.01183359252834762
leaf_count=6899 12340 2243 1542 5785 5527 7269 11293 6120 2240
internal_value=0 -0.144621 0.361484 -0.0500068 0.634915 0.142606 -0.112052 0.0101363 -0.406124
internal_count=61258 40021 21237 25441 12426 8811 19656 8363 14580
shrinkage=0.1


Tree=22
num_leaves=10
num_cat=0
split_feature=5 4 13 2 0 11 1 5 1
split_gain=446.566 225.174 89.4181 81.6586 59.676 53.9657 40.4489 31.3541 31.6732
threshold=2.5000000000000004 0.37268785247487018 0.0011591964636445443 0.80625000000000013 2.5000000000000004 0.88997607655502409 121.50000000000001 8.5000000000000018 1695.5000000000002
decision_type=8 8 10 10 2 8 2 10 2
left_child=1 3 -2 -1 7 6 -3 8 -4
right_child=2 5 4 -5 -6 -7 -8 -9 -10
leaf_value=0.034556240977291097 -0.048063511321721722 0.01846666809501504 -0.0033264501470787553 0.082093388069756745 -0.072105779224009375 -0.022619520406272096 -0.0068362482299837496 -0.027002005615689856 -0.066735052553459115
leaf_count=10966 9160 8993 10227 5843 1058 3172 4776 6681 382
internal_value=0 0.192699 -0.232044 0.451867 -0.152254 0.0344283 0.0951827 -0.121512 -0.0563036
internal_count=61258 33750 27508 16809 18348 16941 13769 17290 10609
shrinkage=0.1


Tree=23
num_leaves=10
num_cat=0
split_feature=5 12 12 1 5 5 11 0 8
split_gain=387.947 154.453 134.508 54.0004 51.7911 43.0319 36.6802 29.23 25.9691
threshold=1.0000000180025095e-35 314.50000000000006 13.500000000000002 154.50000000000003 8.5000000000000018 2.5000000000000004 0.72224648229015054 1.0000000180025095e-35 0.66978487292341926
decision_type=8 10 10 2 8 10 8 2 8
left_child=1 6 4 5 -2 -4 7 -1 -9
right_child=2 -3 3 -5 -6 -7 -8 8 -10
leaf_value=0.03713478809692259 -0.019069257706553423 0.069086473536941903 0.019701953020962223 -0.018664121444839341 -0.047365765134747599 -0.0043605943650952168 -0.010545356161735896 -0.0061089346489942844 0.02985057100174994
leaf_count=5145 9992 9164 6187 6143 9065 8634 1851 2492 2585
internal_value=0 0.3167 -0.123494 -0.0124505 -0.294767 0.0598019 0.168886 0.235676 0.101849
internal_count=61258 21237 40021 20964 19057 14821 12073 10222 5077
shrinkage=0.1


Tree=24
num_leaves=10
num_cat=0
split_feature=2 5 2 10 4 9 0 13 0
split_gain=331.68 135.137 84.4953 53.5516 43.9592 38.6139 37.7701 42.1874 48.3401
threshold=0.51666666666666672 6.5000000000000009 0.80625000000000013 5.5000000000000009 -1.0000000180025095e-35 12.500000000000002 2.5000000000000004 0.35416666666666669 5.5000000000000009
decision_type=10 8 10 10 8 8 2 10 2
left_child=1 3 4 6 -2 -3 -1 -8 -9
right_child=2 5 -4 -5 -6 -7 7 8 -10
leaf_value=-0.0039442611392686722 0.060528527513853882 -0.018161288271351505 0.076853854478283634 0.016226025376857935 0.017733035824069883 -0.044739425868394606 -0.058014398001885882 -0.088642514303231945 0.15103010585630838
leaf_count=19249 2534 7599 5884 6731 8800 9049 1239 69 104
internal_value=0 -0.0908126 0.371473 -0.00803734 0.261627 -0.299983 -0.0642706 -0.426143 0.588794
internal_count=61258 44040 17218 27392 11334 16648 20661 1412 173
shrinkage=0.1


Tree=25
num_leaves=10
num_cat=0
split_feature=9 10 3 5 12 1 0 5 12
split_gain=286.82 120.455 117.58 52.2374 35.0312 33.5577 33.3269 31.0516 32.2087
threshold=1.0000000180025095e-35 15.500000000000002 1.3526040055544506 9.5000000000000018 73.500000000000014 1923.5000000000002 3.5000000000000004 2.5000000000000004 1.5000000000000002
decision_type=8 10 10 8 10 2 2 10 8
left_child=1 4 3 6 -1 7 -2 8 -4
right_child=2 -3 5 -5 -6 -7 -8 -9 -10
leaf_value=0.00063205006217804786 -0.010802039353675458 0.063560074856316803 0.092221955675151249 -0.038064759529657349 0.032298232842060924 -0.048693331382634729 -0.054399834200582697 -0.00226545911138424 0.015652357995511571
leaf_count=3942 17254 8903 368 10199 5540 517 1120 6202 7213
internal_value=0 0.31882 -0.0925974 -0.193985 0.145508 0.0632131 -0.131921 0.0840026 0.186978
internal_count=61258 18385 42873 28573 9482 14300 18374 13783 7581
shrinkage=0.1


Tree=26
num_leaves=10
num_cat=0
split_feature=7 2 9 2 14 0 0 10 3
split_gain=240.259 92.3329 92.2249 55.3693 50.8829 29.836 27.3392 23.6621 21.8873
threshold=55.500000000000007 0.25833333333333336 1.0000000180025095e-35 0.83974358974358987 6.5000000000000009 4.5000000000000009 1.0000000180025095e-35 24.500000000000004 2.0776550673994532
decision_type=10 10 10 10 10 2 2 10 10
left_child=1 4 3 7 -1 -6 -3 -2 -8
right_child=2 6 -4 -5 5 -7 8 -9 -10
leaf_value=-0.036279279314866485 0.024468861668506228 0.013305587102335285 0.0076500100212526434 0.089664328517309017 -0.010054395161327376 -0.077237573057137923 -0.014430705654143611 0.056144914975096709 0.0093348950621016131
leaf_count=11282 5840 7023 6775 3949 14038 464 4761 3937 3189
internal_value=0 -0.0966125 0.25921 0.452195 -0.200494 -0.118505 0.0319485 0.354255 -0.0555644
internal_count=61258 40757 20501 13726 25784 14502 14973 9777 7950
shrinkage=0.1


Tree=27
num_leaves=10
num_cat=0
split_feature=2 11 1 2 5 1 8 10 3
split_gain=205.909 95.3269 59.7483 58.2929 42.412 44.2152 54.1714 33.2396 28.8652
threshold=0.60769230769230786 0.88997607655502409 969.50000000000011 0.85164835164835173 3.5000000000000004 772.50000000000011 1.0000000000000001e+300 6.5000000000000009 2.4663835735375348
decision_type=10 8 2 10 10 2 8 10 10
left_child=1 2 4 8 5 7 -7 -1 -2
right_child=3 -3 -4 -5 -6 6 -8 -9 -10
leaf_value=0.0013240600715580838 0.013553169195971736 -0.026392891866234277 -0.032354474541248325 0.078253022620290852 -0.0081458727595598284 0.013387868669344549 0.1923756877230979 0.022492481963553791 0.046481604789909425
leaf_count=11206 6142 13795 2824 4473 12554 196 141 5840 4087
internal_value=0 -0.0606961 -0.0022846 0.354761 0.0275323 0.0957093 0.885937 0.0797742 0.2575
internal_count=61258 46556 32761 14702 29937 17383 337 17046 10229
shrinkage=0.1


Tree=28
num_leaves=10
num_cat=0
split_feature=9 12 3 5 13 1 0 2 0
split_gain=178.312 96.8753 74.3359 39.4924 32.7659 27.9788 25.9531 25.474 25.3951
threshold=1.0000000180025095e-35 368.50000000000006 1.3526040055544506 10.500000000000002 0.0009844942757339973 5595.5000000000009 3.5000000000000004 0.74166666666666681 1.0000000180025095e-35
decision_type=8 10 10 8 8 2 2 10 2
left_child=1 8 3 6 -4 7 -2 -6 -1
right_child=2 -3 4 -5 5 -7 -8 -9 -10
leaf_value=0.026326833476528363 -0.0087712482816417539 0.062273021430716335 -0.053291183441421842 -0.034707877583981819 0.0063115264175424169 -0.07930487312973826 -0.047276145686212599 0.055561600433269298 0.00049913407121837444
leaf_count=5164 18864 8103 552 8504 12540 181 1205 1027 5118
internal_value=0 0.260216 -0.0725786 -0.154739 0.0516851 0.0710257 -0.107893 0.0825687 0.130937
internal_count=61258 18385 42873 28573 14300 13748 20069 13567 10282
shrinkage=0.1


Tree=29
num_leaves=10
num_cat=0
split_feature=7 9 2 2 1 1 3 2 13
split_gain=151.597 64.3081 57.9701 48.3824 32.9181 23.7546 21.3059 25.1972 20.3461
threshold=55.500000000000007 1.0000000180025095e-35 0.11805555555555557 0.85164835164835173 1554.5000000000002 50.500000000000007 1.3526040055544506 0.65476190476190488 0.099295774647887344
decision_type=10 10 10 10 2 2 10 10 10
left_child=2 3 -1 5 6 -2 -4 -8 -6
right_child=1 -3 4 -5 8 -7 7 -9 -10
leaf_value=-0.026688248357268664 0.044489672055868075 0.0061186938171357459 -0.0072118695029669729 0.085263506815901419 -0.020891485887494718 0.013395480145602837 0.0030682837661159972 0.04631245231170987 -0.081976747723998156
leaf_count=12389 5199 6775 14875 3871 1296 4656 10501 1329 367
internal_value=0 0.211445 -0.0767267 0.382666 -0.0316933 0.294548 -0.0127389 0.0567325 -0.348994
internal_count=61258 20501 40757 13726 28368 9855 26705 11830 1663
shrinkage=0.1


Tree=30
num_leaves=10
num_cat=0
split_feature=2 5 10 12 1 0 0 14 0
split_gain=130.541 84.7594 48.2479 39.6016 32.0861 22.5641 21.3974 25.1352 17.9294
threshold=0.77350427350427364 3.5000000000000004 6.5000000000000009 660.50000000000011 51.500000000000007 2.5000000000000004 1.0000000180025095e-35 17.500000000000004 1.5000000000000002
decision_type=10 8 10 8 2 2 2 10 2
left_child=1 2 6 5 -4 -3 7 -1 -8
right_child=-2 3 4 -5 -6 -7 8 -9 -10
leaf_value=-0.017199308038944462 0.054612276785642802 -0.0065098009194600156 0.033131003998030789 -0.033624896593330393 0.0051239397341149469 -0.050458221414435206 -0.014999130932048174 0.013345211705428317 0.0042098418461982623
leaf_count=1758 7297 14133 5589 8619 5065 908 6590 7242 4057
internal_value=0 -0.025082 0.0523423 -0.149849 0.195685 -0.0866164 -0.00982414 0.0732543 -0.0780235
internal_count=61258 53961 30301 23660 10654 15041 19647 9000 10647
shrinkage=0.1


Tree=31
num_leaves=10
num_cat=0
split_feature=5 12 14 1 0 2 0 0 5
split_gain=112.758 77.1171 47.4073 50.0307 23.2508 20.1886 20.2342 21.4865 18.9325
threshold=1.0000000180025095e-35 398.50000000000006 6.5000000000000009 32.500000000000007 1.0000000180025095e-35 0.80625000000000013 1.0000000180025095e-35 1.5000000000000002 9.5000000000000018
decision_type=8 10 10 2 2 10 2 2 10
left_child=1 5 8 -4 -5 6 -1 -8 -2
right_child=2 -3 3 4 -6 -7 7 -9 -10
leaf_value=0.01876374072932185 -0.017744455086641905 0.054542895404520175 0.0087224244900416786 -0.00032647588742673768 -0.018236757794661208 0.061489236337315845 -0.014087098010364047 0.015621723077076204 -0.048534556038006868
leaf_count=5790 9654 8010 11986 6385 9251 1246 3622 2569 2745
internal_value=0 0.184741 -0.0663295 -0.0233887 -0.108696 0.0972242 0.0773874 -0.0195422 -0.231613
internal_count=61258 21237 40021 27622 15636 13227 11981 6191 12399
shrinkage=0.1


Tree=32
num_leaves=10
num_cat=0
split_feature=2 2 14 1 13 14 0 0 6
split_gain=97.4034 63.738 28.6398 28.3721 49.6062 31.1175 27.8776 27.5197 21.0354
threshold=0.77350427350427364 0.24038461538461545 4702.0000000000009 62.500000000000007 0.35416666666666669 21.500000000000004 5.5000000000000009 1.0000000180025095e-35 99.500000000000014
decision_type=10 10 10 2 10 10 2 2 10
left_child=1 2 -1 5 -5 -3 7 -6 -7
right_child=-2 3 -4 4 6 8 -8 -9 -10
leaf_value=-0.019965544380953881 0.04930272196959673 -0.013526850413749875 0.00059747009695770338 -0.0062942338497921487 0.090460165309478535 0.010753897221276081 0.15155509038653756 -0.033913131562757291 0.033839795327159548
leaf_count=17782 7297 2229 5518 13271 213 10546 176 154 4072
internal_value=0 -0.0209651 -0.134843 0.0435199 -0.0346403 0.109024 0.659046 0.330435 0.151274
internal_count=61258 53961 23300 30661 13814 16847 543 367 14618
shrinkage=0.1


Tree=33
num_leaves=10
num_cat=0
split_feature=10 9 5 12 2 14 0 14 1
split_gain=84.4618 62.4121 39.808 32.1782 28.3989 25.4683 18.1863 22.1953 17.4182
threshold=6.5000000000000009 1.0000000180025095e-35 5.5000000000000009 2165.5000000000005 0.80625000000000013 5099.0000000000009 1.0000000180025095e-35 26.500000000000004 67.500000000000014
decision_type=10 10 8 10 10 10 2 10 2
left_child=2 4 6 8 -2 -4 7 -1 -3
right_child=1 3 5 -5 -6 -7 -8 -9 -10
leaf_value=-0.014457002344651807 0.028592356082832612 0.015289229434317188 -0.025347478454167478 -0.12056352446220944 0.074017693754257388 0.0007422550439852146 -0.0067841794366925202 0.011134996633762804 -0.0047554983296500593
leaf_count=2438 6224 5188 13197 140 4451 3106 13237 9266 4011
internal_value=0 0.154098 -0.0603533 0.0502225 0.387911 -0.182419 -0.00968958 0.0590604 0.0646232
internal_count=61258 20014 41244 9339 10675 16303 24941 11704 9199
shrinkage=0.1


Tree=34
num_leaves=10
num_cat=0
split_feature=2 5 10 12 1 9 7 0 9
split_gain=73.7794 48.4032 31.2548 24.2051 21.2792 19.8395 18.412 17.4371 15.0389
threshold=0.80625000000000013 3.5000000000000004 6.5000000000000009 660.50000000000011 51.500000000000007 1.0000000180025095e-35 904.50000000000011 2.5000000000000004 6.5000000000000009
decision_type=10 8 10 8 2 10 8 2 10
left_child=1 2 8 7 -4 -2 -7 -3 -1
right_child=5 3 4 -5 -6 6 -8 -9 -10
leaf_value=-0.001865368775976346 0.067556487235338067 -0.0043714950909737897 0.026870115406798286 -0.026336165235788401 0.0042207862496229558 0.015125545423810545 -0.21879936201368713 -0.044143643214506749 0.034309333658410358
leaf_count=19485 5213 14133 6105 8619 5506 635 36 908 618
internal_value=0 -0.0147878 0.0429846 -0.111147 0.157361 0.529716 -0.00127087 -0.0623535 -0.00728696
internal_count=61258 55374 31714 23660 11611 5884 671 15041 20103
shrinkage=0.1


Tree=35
num_leaves=10
num_cat=0
split_feature=2 2 0 3 0 0 12 4 5
split_gain=64.6129 44.1224 29.3978 27.8034 21.1485 21.711 20.7262 17.5473 14.9665
threshold=0.85164835164835173 0.30384615384615393 3.5000000000000004 3.2682629080616077 1.0000000180025095e-35 1.5000000000000002 49.500000000000007 0.28826956969281953 1.0000000180025095e-35
decision_type=10 10 2 10 2 2 10 10 10
left_child=1 2 6 4 -3 -6 -1 -5 -2
right_child=8 3 -4 7 5 -7 -8 -9 -10
leaf_value=-0.011448242867568181 0.070121030372559776 0.010063208954925172 -0.048001967740473314 0.031098658932119085 -0.013792048181209019 0.0076354334829518136 0.0043817222239896699 0.0032972111473251022 -0.035306727527863596
leaf_count=20900 4329 9730 1593 4955 6736 4532 6074 2265 144
internal_value=0 -0.0111479 -0.0857133 0.056609 0.0161899 -0.0532642 -0.0677812 0.20695 0.61016
internal_count=61258 56785 28567 28218 20998 11268 26974 7220 4473
shrinkage=0.1


Tree=36
num_leaves=10
num_cat=0
split_feature=6 1 1 11 4 13 3 14 1
split_gain=57.6997 32.3439 30.6892 24.4806 23.6349 22.0955 20.8272 19.2453 17.9298
threshold=50.500000000000007 189.50000000000003 1695.5000000000002 0.84661726154466643 0.29585694529761492 0.0009844942757339973 2.1888013410388165 15.500000000000002 23.500000000000004
decision_type=10 2 2 8 8 10 10 8 2
left_child=2 4 3 5 -2 -1 7 -5 -7
right_child=1 -3 -4 6 -6 8 -8 -9 -10
leaf_value=-0.059262445685154944 0.038791317033190366 -0.0059776154887059311 -0.032525747849041435 -0.049369948268012206 0.011588189370827368 0.0088879789087270063 0.025013390461479153 -0.012696794675479836 -0.0032113912431093968
leaf_count=339 8623 4117 2354 1062 4372 11164 672 11490 17065
internal_value=0 0.163091 -0.0393882 -0.0242766 0.245779 0.00899284 -0.133331 -0.167766 0.0160965
internal_count=61258 17112 44146 41792 12995 28568 13224 12552 28229
shrinkage=0.1


Tree=37
num_leaves=10
num_cat=0
split_feature=2 5 0 12 1 13 5 2 3
split_gain=52.6534 33.6435 27.9666 25.2172 20.5966 20.6931 15.6407 24.4567 16.0061
threshold=0.85164835164835173 2.5000000000000004 2.5000000000000004 368.50000000000006 3603.0000000000005 0.0011591964636445443 11.500000000000002 0.064583333333333354 1.0000000180025095e-35
decision_type=10 8 2 10 2 8 10 8 10
left_child=1 3 4 -1 5 -3 7 -7 -9
right_child=-2 2 -4 -5 -6 6 -8 8 -10
leaf_value=0.001878840940838738 0.057286361121493268 -0.062871900873952447 -0.044517725264087676 0.023356326746688999 -0.056096531616512006 0.072279742252445878 -0.023456136399166595 -0.01054124403965985 0.0036006694992418865
leaf_count=22620 4473 269 1802 6657 629 367 3617 12200 8624
internal_value=0 -0.00975733 -0.0771467 0.0478566 -0.0581198 -0.0473337 -0.03776 -0.0160309 -0.0260805
internal_count=61258 56785 27508 29277 25706 25077 24808 21191 20824
shrinkage=0.1


Tree=38
num_leaves=10
num_cat=0
split_feature=2 10 0 13 0 9 5 1 13
split_gain=45.1646 29.6793 22.8022 39.9938 32.6593 18.8188 17.6731 17.3296 16.9205
threshold=0.85164835164835173 6.5000000000000009 2.5000000000000004 0.35416666666666669 5.5000000000000009 1.0000000180025095e-35 9.5000000000000018 44.500000000000007 0.0010195412358953359
decision_type=10 10 2 10 2 10 8 2 10
left_child=1 2 6 -4 -5 -3 -1 -8 -7
right_child=-2 5 3 4 -6 8 7 -9 -10
leaf_value=-0.00072601122453384381 0.054481670374850744 0.023776894827529454 -0.041280555603784873 -0.062008718278460301 0.11850910818481659 -0.041210423385679304 -0.0022985895818798583 -0.030721183461600396 0.0055750747078146482
leaf_count=28651 4473 7093 2399 108 224 450 4695 4578 8587
internal_value=0 -0.00884894 -0.0446901 -0.287666 0.590647 0.0870735 -0.0297574 -0.162439 0.0338928
internal_count=61258 56785 40655 2731 332 16130 37924 9273 9037
shrinkage=0.1


Tree=39
num_leaves=10
num_cat=0
split_feature=2 4 0 2 1 11 5 0 8
split_gain=38.6406 25.6646 26.2414 26.2115 25.1487 27.6846 21.6179 19.9461 18.1957
threshold=0.85164835164835173 -1.0000000180025095e-35 2.5000000000000004 0.48333333333333339 24.500000000000004 0.88997607655502409 9.5000000000000018 1.5000000000000002 2.5203609123432713
decision_type=10 8 2 10 2 8 8 2 8
left_child=1 3 4 -1 5 -3 -6 -7 -5
right_child=-2 2 -4 8 6 7 -8 -9 -10
leaf_value=0.0020561987673835837 0.051687341287624734 0.01104700698231522 -0.028601399528885341 0.010653781216408705 -0.0033818282893117789 -0.019904516639896872 -0.024132335575122624 0.03099083634040796 0.057839027183940121
leaf_count=2898 4473 13659 2777 1262 22594 4600 6109 749 2137
internal_value=0 -0.00800007 -0.0266109 0.152263 -0.0134892 0.0589662 -0.0607883 -0.126492 0.374568
internal_count=61258 56785 50488 6297 47711 19008 28703 5349 3399
shrinkage=0.1


Tree=40
num_leaves=10
num_cat=0
split_feature=5 12 1 10 13 5 11 4 13
split_gain=34.4945 36.9973 21.2525 16.9651 16.9469 15.0989 14.7215 13.5059 12.0353
threshold=1.0000000180025095e-35 827.50000000000011 35.500000000000007 24.500000000000004 0.0005148005489085699 9.5000000000000018 0.88997607655502409 0.58558272628138586 0.35416666666666669
decision_type=8 10 2 10 8 8 8 8 10
left_child=1 3 6 8 -4 -6 -2 -8 -1
right_child=2 -3 4 -5 5 -7 7 -9 -10
leaf_value=0.0013869866220728904 0.0062419215750319779 0.05588329343967794 -0.13450222648988269 0.028147901246879665 -0.0057461912044168501 -0.023889927332548515 0.061483319006973215 -0.013675041753390838 0.040376758190376713
leaf_count=11634 12320 4420 63 4665 15574 5948 119 5997 518
internal_value=0 0.106825 -0.0367279 0.0706133 -0.0898417 -0.0859567 0.0252933 -0.10794 0.0321681
internal_count=61258 21237 40021 16817 21585 21522 18436 6116 12152
shrinkage=0.1


Tree=41
num_leaves=10
num_cat=0
split_feature=2 1 1 13 14 0 14 9 10
split_gain=29.8385 22.053 26.2128 52.5005 25.0456 23.2946 18.3872 21.3653 19.7954
threshold=0.87083333333333346 1017.5000000000001 772.50000000000011 0.35416666666666669 19.500000000000004 2.5000000000000004 159.50000000000003 1.0000000180025095e-35 24.500000000000004
decision_type=10 2 2 10 10 2 10 10 10
left_child=1 2 4 -4 -1 6 -6 8 -8
right_child=-2 -3 3 -5 5 -7 7 -9 -10
leaf_value=-0.011002038698876324 0.051349325642260836 -0.017687458209975325 0.0066972146003730585 0.13437503903284653 0.025201591649622591 -0.035738449414046261 0.0072280568753671911 -0.0009813730952387416 0.037041608048111803
leaf_count=13618 3828 4702 826 347 2137 978 8325 22138 4359
internal_value=0 -0.00621069 0.00887381 0.401279 0.000386569 0.029832 0.0397234 0.0251187 0.135345
internal_count=61258 57430 52728 1173 51555 37937 36959 34822 12684
shrinkage=0.1


Tree=42
num_leaves=10
num_cat=0
split_feature=7 3 12 9 1 1 13 0 0
split_gain=25.8115 28.0815 17.8024 17.5361 15.0238 40.1502 36.8647 18.0794 18.9602
threshold=111.50000000000001 2.4916387021459454 1907.5000000000002 1.0000000180025095e-35 969.50000000000011 772.50000000000011 0.35416666666666669 2.5000000000000004 1.5000000000000002
decision_type=10 8 10 10 2 2 10 2 2
left_child=2 -2 4 -3 5 7 -7 8 -1
right_child=1 3 -4 -5 -6 6 -8 -9 -10
leaf_value=-0.0033172184416396864 -0.0018683793545945964 0.041972411877450815 -0.13624659915730816 0.011109893115223706 -0.017214562987992284 0.015989227418381501 0.13500690878818172 -0.029057457029329981 0.011466958385380414
leaf_count=32587 6986 6361 56 2186 4086 500 348 1824 6324
internal_value=0 0.121816 -0.0241214 0.25893 -0.0222711 -0.0083079 0.580157 -0.0186972 -0.00839259
internal_count=61258 15533 45725 8547 45669 41583 848 40735 38911
shrinkage=0.1


Tree=43
num_leaves=10
num_cat=0
split_feature=2 1 2 13 2 8 1 1 8
split_gain=23.5512 18.7929 23.869 21.5023 23.2403 21.4739 18.5399 21.1927 14.9306
threshold=0.87083333333333346 199.50000000000003 0.44097222222222227 0.35416666666666669 0.22649572649572655 2.9367481918801004 1272.5000000000002 772.50000000000011 5.0276457706637023
decision_type=10 2 10 10 10 10 2 2 8
left_child=1 2 8 -3 -5 -4 7 -6 -1
right_child=-2 3 5 4 6 -7 -8 -9 -10
leaf_value=0.00098859774621392628 0.047274480757490217 -0.01073412436701379 0.0071900974401276872 -0.041277748311776323 0.0095219683301850707 0.037942310022738346 -0.049301974485258478 0.13182698574917975 -0.013576029209955412
leaf_count=18313 3828 13891 12668 232 110 2953 56 338 8869
internal_value=0 -0.00531134 0.0222182 -0.0854253 0.364796 0.110748 0.660264 0.879572 -0.0202962
internal_count=61258 57430 42803 14627 736 15621 504 448 27182
shrinkage=0.1


Tree=44
num_leaves=10
num_cat=0
split_feature=10 9 12 5 2 1 13 2 1
split_gain=21.0744 22.0607 15.1797 14.2781 15.3535 13.7948 21.0849 16.86 17.8514
threshold=24.500000000000004 1.0000000180025095e-35 1701.5000000000002 11.500000000000002 0.064583333333333354 199.50000000000003 0.35416666666666669 0.22649572649572655 941.50000000000011
decision_type=10 10 10 10 8 2 10 10 2
left_child=3 -2 -3 4 -1 -6 -7 -8 -9
right_child=1 2 -4 -5 5 6 7 8 -10
leaf_value=0.044661049821439376 0.032478824995778553 0.0058877507708084741 -0.065210922028977977 -0.021415424378988298 0.0011685144280971288 -0.01163106267059133 -0.039038371187280853 0.086882932167029803 -0.034205556364314819
leaf_count=523 7692 4321 210 3909 33194 10715 175 445 74
internal_value=0 0.12411 0.0315665 -0.019367 -0.00947297 -0.0142476 -0.0904855 0.370525 0.606381
internal_count=61258 12223 4531 49035 45126 44603 11409 694 519
shrinkage=0.1


Tree=45
num_leaves=10
num_cat=0
split_feature=0 14 1 6 13 9 12 11 2
split_gain=19.0141 26.0369 19.6788 22.6801 16.6974 13.8171 12.6372 11.7551 11.5275
threshold=1.0000000180025095e-35 28.500000000000004 25.500000000000004 101.50000000000001 0.0010195412358953359 1.0000000180025095e-35 897.50000000000011 0.62339494074331891 0.31009615384615391
decision_type=2 10 2 10 8 10 10 10 8
left_child=1 7 3 4 -2 6 -3 8 -1
right_child=2 5 -4 -5 -6 -7 -8 -9 -10
leaf_value=-0.018856243386563793 -0.098758159653617186 0.017179629645276851 -0.0090285171392788712 0.036872737263355451 0.0014196149573660144 0.0054738667309596721 0.064692480392317522 -0.042899764116785033 0.0077525099887703385
leaf_count=3332 125 6958 21281 2460 9486 12464 2025 653 2474
internal_value=0 0.0526466 -0.0420215 0.0441506 0.00301582 0.093354 0.209156 -0.113649 -0.064365
internal_count=61258 27906 33352 12071 9611 21447 8983 6459 5806
shrinkage=0.1


Tree=46
num_leaves=10
num_cat=0
split_feature=2 10 14 13 0 13 0 14 14
split_gain=17.8084 14.9256 15.0099 20.3838 14.3148 19.6608 19.0829 12.3556 20.8899
threshold=0.89444444444444449 1.5000000000000002 5.5000000000000009 0.16557017543859651 2.5000000000000004 0.35416666666666669 5.5000000000000009 28.500000000000004 302.50000000000006
decision_type=10 10 10 10 2 10 2 10 10
left_child=1 4 -3 7 -1 -6 -7 -4 -9
right_child=-2 2 3 -5 5 6 -8 8 -10
leaf_value=-0.002345067796932874 0.052775806072771658 -0.051899827535605986 -0.02211464570964982 0.067192359669636853 -0.033813909749256986 -0.052242535497694809 0.094862960453659786 0.038142794105691852 0.0040096916482293956
leaf_count=32911 2691 275 873 296 2249 108 229 1070 20556
internal_value=0 -0.00354009 0.0495674 0.0576647 -0.0366352 -0.244162 0.425247 0.0473414 0.0618981
internal_count=61258 58567 23070 22795 35497 2586 337 22499 21626
shrinkage=0.1


Tree=47
num_leaves=10
num_cat=0
split_feature=2 0 11 1 6 0 0 12 10
split_gain=15.4138 14.1779 19.6888 16.046 15.3803 12.1471 14.3626 13.4289 11.884
threshold=0.90454545454545465 1.0000000180025095e-35 0.78964130070398941 32.500000000000007 97.500000000000014 1.5000000000000002 2.5000000000000004 879.50000000000011 24.500000000000004
decision_type=10 2 8 2 10 2 2 10 8
left_child=1 2 -1 4 5 7 8 -3 -7
right_child=-2 3 -4 -5 -6 6 -8 -9 -10
leaf_value=0.0077353527428797369 0.053204195113349721 -0.0061442161731316463 -0.010591455379889803 -0.0086958637772445897 0.029184907284781805 0.0076991485448814484 -0.024599829538824902 -0.10463926343618271 0.040053199952424665
leaf_count=20358 2395 5635 6242 19533 2348 2633 826 86 1202
internal_value=0 -0.00302944 0.0423925 -0.0398074 0.0327567 0.000619145 0.0962443 -0.0766817 0.153374
internal_count=61258 58863 26600 32263 12730 10382 4661 5721 3835
shrinkage=0.1


Tree=48
num_leaves=10
num_cat=0
split_feature=2 4 2 11 1 0 11 8 4
split_gain=13.1963 13.1468 17.825 12.4419 15.2623 11.2327 10.4084 10.1132 10.2607
threshold=0.90454545454545465 -1.0000000180025095e-35 0.51666666666666672 0.024423382820784736 29.500000000000004 1.0000000180025095e-35 0.82298767836727793 2.4371409332249523 -0.93521952958283183
decision_type=10 8 10 8 2 2 8 8 10
left_child=1 2 6 4 -3 -6 -1 8 -4
right_child=-2 3 7 -5 5 -7 -8 -9 -10
leaf_value=-0.0003250787525667618 0.050486585970349385 0.029459802166583754 0.10412486200692082 -0.0029319722571261118 0.015256330059333615 -0.015696544225470316 0.056751859902499126 0.051716406877119772 -0.003035132244676159
leaf_count=3283 2395 1777 107 47600 1512 1407 163 2179 835
internal_value=0 -0.0027285 0.114012 -0.0160185 0.106937 -0.00257577 0.0271438 0.35094 0.0890894
internal_count=61258 58863 6567 52296 4696 2919 3446 3121 942
shrinkage=0.1


Tree=49
num_leaves=10
num_cat=0
split_feature=7 9 2 11 11 8 2 12 0
split_gain=12.2947 11.7615 20.169 16.362 13.6899 13.3827 11.243 12.0486 11.1024
threshold=652.50000000000011 1.0000000180025095e-35 0.85164835164835173 0.72843594146022406 0.74305019305019315 1.0676926566412825 0.90454545454545465 1701.5000000000002 1.0000000180025095e-35
decision_type=10 10 8 10 10 10 10 10 2
left_child=6 3 -3 -2 -5 -6 7 8 -1
right_child=1 2 -4 4 5 -7 -8 -9 -10
leaf_value=0.0035869478501893157 0.056966487190802995 0.0020281274560732445 -0.29249211704987366 -0.42920979648857238 -0.23301668091186714 0.10538679702406327 0.057697276599804143 -0.063626837535031733 -0.0037677927343983406
leaf_count=25349 2919 258 32 27 35 79 1494 272 30793
internal_value=0 0.285698 -0.140294 0.471805 -1.14759 -0.407648 -0.00472375 -0.00703473 -0.00473616
internal_count=61258 3350 290 3060 141 114 57908 56414 56142
shrinkage=0.1


Tree=50
num_leaves=10
num_cat=0
split_feature=10 1 5 2 6 12 14 12 4
split_gain=12.0204 13.3704 12.0697 15.0726 11.8994 14.0189 11.2898 12.8775 10.3182
threshold=1.5000000000000002 23.500000000000004 11.500000000000002 0.064583333333333354 103.50000000000001 988.50000000000011 8.5000000000000018 6.5000000000000009 0.37268785247487018
decision_type=10 2 10 8 10 10 10 10 8
left_child=2 4 3 -1 5 -2 -3 8 -8
right_child=1 6 -4 -5 -6 -7 7 -9 -10
leaf_value=0.050783131128141271 0.01081024615770659 -0.045653072691352568 -0.023334810856578059 -0.0023965540015936748 0.034708503205144382 -0.052915047471463361 -0.056630126667408999 -0.00011130106546488191 0.077055348612816099
leaf_count=403 5969 312 3258 32031 3715 284 36 15049 201
internal_value=0 0.0476541 -0.029522 -0.0181617 0.130495 0.0856129 -0.00135601 0.0106316 0.554517
internal_count=61258 25566 35692 32434 9968 6253 15598 15286 237
shrinkage=0.1


Tree=51
num_leaves=10
num_cat=0
split_feature=3 4 15 11 0 13 10 1 14
split_gain=10.7579 21.4129 11.8608 11.7255 19.8403 11.4032 11.6334 11.589 11.1341
threshold=3.2682629080616077 0.28826956969281953 -0.85867125171088066 0.17501902587519028 2.5000000000000004 0.19848484848484851 141.50000000000003 30.500000000000004 4295.5000000000009
decision_type=10 8 8 8 2 10 10 2 10
left_child=2 -2 -1 4 5 6 7 -4 -7
right_child=1 -3 3 -5 -6 8 -8 -9 -10
leaf_value=0.018662879563323267 0.018986784409065982 -0.0036404412921684339 0.013655440422959561 -0.0054867587922835274 -0.040148967890889821 0.004446563245934375 0.092110122216286727 -0.0020870489704775006 0.13223970958053843
leaf_count=1717 8557 4637 4785 33368 677 79 201 7165 72
internal_value=0 0.0721051 -0.0173248 -0.0258542 0.0358993 0.0575833 0.0486715 0.0418882 0.699575
internal_count=61258 13194 48064 46347 12979 12302 12151 11950 151
shrinkage=0.1


Tree=52
num_leaves=10
num_cat=0
split_feature=10 9 2 3 6 1 12 0 10
split_gain=9.53602 12.9118 11.0488 11.3719 12.228 13.3142 10.7501 10.6822 9.10025
threshold=24.500000000000004 1.0000000180025095e-35 0.45804195804195807 1.8482852758687625 133.50000000000003 175.50000000000003 3315.0000000000005 1.5000000000000002 111.50000000000001
decision_type=10 10 10 8 10 2 10 2 10
left_child=-1 2 7 4 -4 -6 -3 -2 -7
right_child=1 6 3 -5 5 8 -8 -9 -10
leaf_value=-0.0012981158240901059 0.0061093512880459021 0.0025788091515885031 0.070192523136982654 0.046843322658307283 0.013997191324246615 -0.10769882704414002 -0.13405467035902932 -0.10226436708124245 0.057489562837610225
leaf_count=49035 440 4495 268 5634 898 271 36 105 76
internal_value=0 0.0850175 0.247812 0.32904 0.0418399 -0.157742 0.0159612 -0.149812 -0.78524
internal_count=61258 12223 7692 7147 1513 1245 4531 545 347
shrinkage=0.1


Tree=53
num_leaves=10
num_cat=0
split_feature=5 1 8 5 0 6 15 12 1
split_gain=9.28754 10.4384 17.9963 14.4859 14.4184 13.4743 12.2124 11.801 11.5391
threshold=11.500000000000002 199.50000000000003 4.0243417743949843 7.5000000000000009 5.5000000000000009 101.50000000000001 0.016237172843837019 1701.5000000000002 175.50000000000003
decision_type=10 2 8 8 2 10 10 10 2
left_child=1 5 -3 4 -4 7 8 -1 -7
right_child=-2 2 3 -5 -6 6 -8 -9 -10
leaf_value=0.0013978390360058644 -0.015645461371644156 -0.010256964625815523 0.015351333600866247 -0.020708534255776078 0.083941670964121626 0.011992466356271074 0.043068341150588205 -0.073260714337165786 -0.06891528202970619
leaf_count=32880 4052 10147 2462 1503 324 7230 2300 154 206
internal_value=0 0.00730519 -0.053712 0.123095 0.220363 0.0284043 0.15681 0.0109869 0.0948439
internal_count=61258 57206 14436 4289 2786 42770 9736 33034 7436
shrinkage=0.1


Tree=54
num_leaves=10
num_cat=0
split_feature=0 14 0 1 0 1 11 9 14
split_gain=8.56853 14.0938 11.3085 19.592 11.3767 15.9086 16.9154 13.468 10.9412
threshold=1.0000000180025095e-35 28.500000000000004 1.5000000000000002 1046.5000000000002 2.5000000000000004 772.50000000000011 0.45625536020583196 1.5000000000000002 756.50000000000011
decision_type=2 10 2 2 2 2 8 10 10
left_child=1 -1 -2 4 7 -6 -7 -4 -3
right_child=2 8 3 -5 5 6 -8 -9 -10
leaf_value=-0.0087972426036782327 -0.006644697214032937 0.024682079031696849 0.022843435785562645 -0.02556993519825243 -0.020105993354802402 -0.058106732623007334 0.10227666254275143 0.0021442522130190032 0.004589661447679568
leaf_count=6459 20204 1762 5474 1613 1960 66 251 3784 19685
internal_value=0 0.0356296 -0.0283778 0.0352392 0.0737611 -0.112574 0.552586 0.113312 0.0657296
internal_count=61258 27906 33352 13148 11535 2277 317 9258 21447
shrinkage=0.1


Tree=55
num_leaves=10
num_cat=0
split_feature=7 9 2 11 14 2 11 2 13
split_gain=8.23818 9.14899 13.0141 12.927 9.84932 11.7805 9.2013 8.06694 9.40529
threshold=652.50000000000011 1.0000000180025095e-35 0.83974358974358987 0.72843594146022406 18946.500000000004 0.79285714285714304 0.77791950113378694 0.90454545454545465 0.0011591964636445443
decision_type=10 10 8 10 10 10 10 10 8
left_child=7 3 -3 -2 5 -5 -7 8 -1
right_child=1 2 -4 4 -6 6 -8 -9 -10
leaf_value=-0.026944889753070547 0.051698091471365705 0.002517635153807856 -0.19942331107240274 -0.071154307912507028 0.10583897882406501 -0.70646726334640586 -0.17813864914262811 0.051856565294045504 -0.00013454720916669256
leaf_count=1235 2919 254 36 47 50 20 24 1494 55179
internal_value=0 0.24078 -0.128782 0.417552 -0.95486 -1.71932 -4.23953 -0.00379454 -0.00565423
internal_count=61258 3350 290 3060 141 91 44 57908 56414
shrinkage=0.1


Tree=56
num_leaves=10
num_cat=0
split_feature=3 4 10 12 15 11 0 10 13
split_gain=7.46976 16.3396 10.7089 9.46001 9.37075 9.54158 13.9461 9.45685 9.47223
threshold=3.2682629080616077 0.37268785247487018 219.50000000000003 780.50000000000011 -0.85867125171088066 0.17501902587519028 2.5000000000000004 141.50000000000003 0.16744548286604363
decision_type=10 8 10 8 8 8 2 10 10
left_child=4 -2 3 -3 -1 6 7 8 -6
right_child=1 2 -4 -5 5 -7 -8 -9 -10
leaf_value=0.016748286518431986 0.015867659016187738 -0.006344346890799971 -0.15084363560185568 0.032602111198437971 0.0036551662378947179 -0.0048282489967649764 -0.033692720650258419 0.08629305797478154 0.055569202709788379
leaf_count=1717 8945 3764 42 443 11904 33368 677 201 197
internal_value=0 0.06044 -0.0398445 -0.0309599 -0.0144269 -0.0220219 0.0337855 0.0518431 0.0459739
internal_count=61258 13194 4249 4207 48064 46347 12979 12302 12101
shrinkage=0.1


Tree=57
num_leaves=10
num_cat=0
split_feature=5 2 5 11 11 1 1 2 8
split_gain=7.19197 9.07341 9.41948 16.525 7.99808 7.95987 7.83631 13.9046 17.1559
threshold=11.500000000000002 0.064583333333333354 3.5000000000000004 0.32349017585531525 0.16677364142062476 514.50000000000011 91.500000000000014 0.44097222222222227 2.8645718837104348
decision_type=10 8 10 8 8 2 2 8 10
left_child=1 2 4 -4 -1 -5 7 -3 -9
right_child=-2 6 3 5 -6 -7 -8 8 -10
leaf_value=0.063746004862083802 -0.01388222428406885 -0.0012633765395457935 -0.0059277130547202841 0.10034744734985708 -0.035144674627365112 0.27985288677918341 -0.003631208126134205 0.0060206522326170034 0.035093781350777613
leaf_count=55 4052 17682 123 192 138 30 21618 13233 4135
internal_value=0 0.00639946 0.344558 0.670316 -0.0234433 1.21374 0.00307576 0.0279626 0.0978775
internal_count=61258 57206 538 345 193 222 56668 35050 17368
shrinkage=0.1



feature importances:
launch_day_mean=82
last_launch_day_cut_max_day=57
register_type=48
device_type=46
activity_day_cut_max_day=42
0_action_count=39
launch_day_std=38
max_hot_auth=32
launch_day_skew=21
3_page_count_div_sum=21
3_action_count_div_sum=21
1_page_count=20
act_count_in_last_3_day=18
act_count_in_last_5_day=17
activity_day_std=16
activity_day_diff_ske=4

pandas_categorical:[]
