tree
version=v2
num_class=1
num_tree_per_iteration=1
label_index=0
max_feature_idx=54
objective=binary sigmoid:1
feature_names=create_count create_day_mean create_day_max create_day_min create_day_std create_day_var last_day_cut_max_day create_sub_register_x max_create_times_per_day device_type register_type register_day_cut_max_day launch_count launch_day_mean launch_day_max launch_day_min launch_day_std launch_day_var launch_day_cut_max_day create_sub_register_y max_launch_times_per_day activity_count activity_day_mean activity_day_max activity_day_min activity_day_std activity_day_var activity_day_ske activity_day_kur activity_day_cut_max_day create_sub_register 0_page_count 1_page_count 2_page_count 3_page_count 4_page_count 0_page_count_div_sum 1_page_count_div_sum 2_page_count_div_sum 3_page_count_div_sum 4_page_count_div_sum 0_action_count 1_action_count 2_action_count 3_action_count 4_action_count 5_action_count 0_action_count_div_sum 1_action_count_div_sum 2_action_count_div_sum 3_action_count_div_sum 4_action_count_div_sum 5_action_count_div_sum max_act_times_per_day watch_self
feature_infos=[1:145] [1:23] [1:23] [1:23] [0:10.606601717798213] [0:112.5] [-15:0] [-15:0] [1:37] none none none [1:16] [1:23] [1:23] [1:23] [0.70710678118654757:10.606601717798213] [0.5:112.5] [-15:0] [-15:0] none [1:23286] [1:23] [1:23] [1:23] [0:9.1923881554251174] [0:84.5] [-22.583179581272439:25.139610179953014] [-22.583179581272439:25.139610179953014] [-15:0] [-15:0] [0:6304] [0:4105] [0:2920] [0:16030] [0:980] [0:1] [0:1] [0:1] [0:1] [0:1] [0:21653] [0:4144] [0:603] [0:383] [0:25] [0:88] [0:1] [0:1] [0:0.83333333333333337] [0:0.75] [0:0.33333333333333331] [0:0.25071225071225073] [1:3566] [0:1]
tree_sizes=2574 2594 2591 2598 2603 2603 2613 2619 2631 2604 2603 2624 2611 2615 2610 2602 2607 2607 2607 2602 2603 2606 2602 2596 2587 2599 2593 2576 2590 2602 2594 2601 2611 2584 2604 2606 2583 2572 2588 2576 2595 2584 2555 2566 2553 2585 2567 2580 2595 2574 2574 2550 2583 2552 2540 2532 2598 2528

Tree=0
num_leaves=31
num_cat=0
split_feature=18 41 26 18 18 12 29 39 12 41 18 16 18 18 12 12 18 16 41 12 16 21 25 41 41 18 18 16 41 29
split_gain=16053.3 2457.91 2155.6 713.799 490.521 456.497 438.833 259.433 194.638 190.522 168.82 135.566 115.008 111.755 86.5852 72.5681 53.1342 52.2729 44.0614 40.5872 40.3204 38.9115 37.6934 36.9884 32.0788 28.7129 28.6767 28.0155 27.6747 27.1889
threshold=-1.4999999999999998 28.500000000000004 0.16276491715877903 -3.4999999999999996 -1.0000000180025095e-35 2.5000000000000004 -6.4999999999999991 0.99826989619377171 3.5000000000000004 225.50000000000003 -7.4999999999999991 1.1454972243679029 -1.0000000180025095e-35 -2.4999999999999996 5.5000000000000009 5.5000000000000009 -1.0000000180025095e-35 5.1330773099857954 15.500000000000002 3.5000000000000004 2.3839717100551412 10.500000000000002 0.53461742792141542 14.500000000000002 31.500000000000004 -2.4999999999999996 -5.4999999999999991 8.8388347648318462 8.5000000000000018 -5.4999999999999991
decision_type=10 10 10 10 10 10 10 8 10 10 10 10 10 10 10 10 10 8 10 10 10 10 10 10 10 10 10 8 10 10
left_child=2 5 6 10 8 7 11 12 17 19 -4 21 -2 23 20 24 27 -3 -15 29 -7 -1 -12 -8 -5 -17 -13 -9 -14 -6
right_child=1 4 3 15 9 14 13 16 -10 -11 22 26 28 18 -16 25 -18 -19 -20 -21 -22 -23 -24 -25 -26 -27 -28 -29 -30 -31
leaf_value=-0.084594955373517175 0.047994727757373415 0.14764328661257936 -0.026815171291655268 0.0659409986452862 0.14424100893722971 0.19602729263004004 -0.043809234004173955 0.059040264460828343 0.20792398507041093 0.26241669958295955 -0.0044077645695487916 -0.03564790025420965 0.10055571820913674 0.0014815128773274649 0.26052340450188116 0.12085908050234018 0.033383109612165042 0.078604810481924248 0.060611418860872637 0.23736327500493754 0.11426019043355766 -0.06062432037661715 0.053926256352855917 -0.0053059743590919139 0.11543418960113357 0.18246516118038883 0.024826160144758164 -0.04891914826477263 0.14729074080319821 0.20960456842115421
leaf_count=8832 1232 1233 2341 665 276 491 2136 111 2488 10574 534 705 953 981 470 468 1017 683 1041 2610 476 3918 2632 1880 2490 861 567 729 1087 3359
internal_value=0 1.09675 -1.0142 -0.254459 1.42791 0.0263498 -1.39259 -0.253051 0.833143 1.58365 -0.737302 -1.58689 0.0861385 -0.941366 1.0236 0.338542 -0.850697 0.353559 -0.557534 1.3064 0.681008 -1.64906 -0.435899 -1.13462 0.17325 0.730938 -0.963684 -1.2233 0.37781 1.16964
internal_count=57840 27789 30051 9991 21223 6566 20060 5129 4404 16819 5507 14022 3272 6038 1437 4484 1857 1916 2022 6245 967 12750 3166 4016 3155 1329 1272 840 2040 3635
shrinkage=1


Tree=1
num_leaves=31
num_cat=0
split_feature=18 41 25 18 18 12 29 39 41 12 18 16 18 18 12 41 12 29 16 18 12 25 12 16 16 31 29 16 41 18
split_gain=13070.4 2033.3 1752.81 661.933 421.061 367.791 310.522 203.964 165.744 164.478 120.611 106.889 100.285 87.045 69.9723 50.4604 48.5925 47.496 46.6667 42.9976 38.4515 37.7508 33.3004 32.3373 26.3885 24.8645 23.0841 22.6454 22.5508 22.0241
threshold=-1.4999999999999998 27.500000000000004 0.18859064554530389 -4.4999999999999991 -1.0000000180025095e-35 2.5000000000000004 -4.4999999999999991 0.99826989619377171 225.50000000000003 3.5000000000000004 -2.4999999999999996 1.1454972243679029 -9.4999999999999982 -1.0000000180025095e-35 5.5000000000000009 14.500000000000002 5.5000000000000009 -9.4999999999999982 5.1330773099857954 -1.0000000180025095e-35 6.5000000000000009 0.53461742792141542 3.5000000000000004 2.3839717100551412 6.0868697317173224 65.500000000000014 -5.4999999999999991 8.8388347648318462 95.500000000000014 -6.4999999999999991
decision_type=10 10 10 10 10 10 10 8 10 10 10 10 10 10 10 10 10 10 8 10 10 10 10 10 8 10 10 8 10 10
left_child=2 5 6 12 9 7 11 13 22 18 20 17 -4 -2 23 -8 25 -1 -3 27 -5 -14 26 -7 -17 -12 -6 -9 -28 -23
right_child=1 4 3 10 8 14 15 19 -10 -11 16 -13 21 -15 -16 24 -18 -19 -20 -21 -22 29 -24 -25 -26 -27 28 -29 -30 -31
leaf_value=-0.15359849356482291 -0.035372179548850156 0.054499772167643158 -0.12471197764824403 -0.021226947628932895 0.051153105605022189 0.098347731164007496 -0.099134431264023395 -0.025744556048582796 0.1597938246037349 0.10906139143516076 0.010938564583297263 -0.086416253580995847 -0.094583661103388339 0.032665466709307332 0.15756554088277663 0.0186656676520328 0.086013609218974454 -0.127389910428128 -0.010111724181499856 -0.048779318397885942 0.039449991261043059 -0.068388665585759539 0.13590323988448233 0.023387837733540553 -0.061608464159649157 0.054721250047998639 0.096530014524883564 -0.1227544827130571 0.12951599397959421 -0.030908629823235941
leaf_count=9940 1211 1248 1488 2501 282 472 2087 111 10574 2493 1224 1306 1058 1995 459 182 862 3838 700 1017 503 1247 2632 455 1647 905 1929 729 1482 1263
internal_value=0 0.997037 -0.912144 -0.278106 1.29763 0.0122984 -1.28063 -0.237047 1.44318 0.747894 0.172441 -1.41104 -0.810891 0.0691029 0.930496 -0.77879 0.457518 -1.46294 0.312239 -0.764388 -0.110732 -0.628937 1.1858 0.614365 -0.536214 0.295416 1.06277 -1.09938 1.10861 -0.495325
internal_count=57840 27789 30051 11051 21340 6449 19000 5063 16899 4441 5995 15084 5056 3206 1386 3916 2991 13778 1948 1857 3004 3568 6325 927 1829 2129 3693 840 3411 2510
shrinkage=0.1


Tree=2
num_leaves=31
num_cat=0
split_feature=18 41 25 18 18 18 16 29 41 41 12 12 12 18 29 39 41 12 18 18 12 12 16 23 19 16 21 32 24 22
split_gain=10726.9 1706.47 1451.57 398.601 357.192 333.917 306.952 184.757 158.228 145.118 135.052 110.963 98.5664 85.8199 55.6487 46.1025 44.3713 40.1607 36.6516 36.49 34.7719 30.662 28.6839 23.8608 32.503 23.7944 23.1102 19.9538 19.5433 22.7822
threshold=-1.4999999999999998 28.500000000000004 0.52097541005879322 -3.4999999999999996 -1.0000000180025095e-35 -3.4999999999999996 6.0304775124705259 -1.0000000180025095e-35 31.500000000000004 225.50000000000003 2.5000000000000004 5.5000000000000009 1.5000000000000002 -8.4999999999999982 -9.4999999999999982 0.92340096763096879 6.5000000000000009 5.5000000000000009 -1.0000000180025095e-35 -7.4999999999999991 5.5000000000000009 4.5000000000000009 6.4562629800321032 8.5000000000000018 -1.0000000180025095e-35 4.1563508553740727 1.5000000000000002 4.5000000000000009 12.500000000000002 13.500000000000002
decision_type=10 10 10 10 10 10 8 10 10 10 10 10 10 10 10 8 10 10 10 10 10 10 8 10 10 10 8 10 10 10
left_child=2 6 3 12 10 13 11 23 15 21 -3 18 14 -4 -1 -5 -9 -7 -2 -14 -12 25 28 24 -8 27 -20 -6 -10 -30
right_child=1 4 5 8 9 17 7 16 22 -11 20 -13 19 -15 -16 -17 -18 -19 26 -21 -22 -23 -24 -25 -26 -27 -28 -29 29 -31
leaf_value=-0.14406752905749051 0.0030741390525418529 0.015206467334245839 -0.094537795121928545 -0.06742216950607631 0.09250858928717598 0.017618159720113279 -0.11656885188788124 -0.016258976032411995 -0.038646787430407337 0.1479644362750277 0.070029357632279798 0.1471657973105803 -0.11517487966564838 -0.031260839039300041 -0.11562690159286221 -0.11194502142795426 0.051392824297927714 0.06071695595627831 0.13460822061003427 -0.076445241279921056 0.11301775344769963 0.13064097310936884 -0.04005430777117814 -0.044529100614858909 -0.054509160734033182 0.051014267541287676 0.048749535067397251 0.12176806606176008 0.0691738216497121 -0.0050292749313838522
leaf_count=8144 778 1325 1199 2187 2400 2557 654 700 236 10574 1502 469 2204 3045 4217 1640 880 1327 143 1759 1577 1875 865 1090 703 376 1149 1594 302 369
internal_value=0 0.913283 -0.826269 -1.09552 1.19648 -0.103284 0.0215107 -0.321382 -0.634259 1.33297 0.686201 0.571168 -1.25457 -0.490871 -1.34327 -0.864095 0.213613 0.322488 0.374219 -0.979509 0.919815 1.08845 -0.140077 -0.66571 -0.84311 0.995723 0.582069 1.04176 0.108945 0.283433
internal_count=57840 27789 30051 21923 21223 8128 6566 4027 5599 16819 4404 2539 16324 4244 12361 3827 1580 3884 2070 3963 3079 6245 1772 2447 1357 4370 1292 3994 907 671
shrinkage=0.1


Tree=3
num_leaves=31
num_cat=0
split_feature=18 41 25 18 12 29 18 41 18 18 41 16 12 12 18 16 18 19 12 16 16 12 27 33 21 23 34 21 21 16
split_gain=8853.79 1463.2 1209.88 448.59 335.386 228.762 221.695 207.794 116.279 92.0578 83.2407 81.2461 73.4341 59.4824 52.7337 51.6274 47.1048 38.0681 35.9234 35.3316 33.3872 32.8511 24.9863 25.0513 23.366 24.3322 23.2662 21.8611 20.9077 19.3904
threshold=-1.4999999999999998 57.500000000000007 0.18859064554530389 -5.4999999999999991 2.5000000000000004 -6.4999999999999991 -1.0000000180025095e-35 4.5000000000000009 -2.4999999999999996 -1.0000000180025095e-35 325.50000000000006 2.1407836215144651 4.5000000000000009 5.5000000000000009 -2.4999999999999996 2.1407836215144651 -9.4999999999999982 -1.0000000180025095e-35 4.5000000000000009 2.4916387021459454 5.5986817166986791 3.5000000000000004 2.3118415502977077 1.5000000000000002 126.50000000000001 20.500000000000004 78.500000000000014 138.50000000000003 10.500000000000002 6.0868697317173224
decision_type=10 10 10 10 10 10 10 10 10 10 10 10 10 10 10 8 10 10 10 10 8 10 10 10 10 10 10 10 10 8
left_child=2 4 5 16 7 11 12 15 21 -9 22 28 20 19 27 -2 -4 -17 24 -6 -3 -5 23 -8 -10 -26 -16 29 -1 -7
right_child=1 6 3 8 13 14 10 9 18 -11 -12 -13 -14 -15 26 17 -18 -19 -20 -21 -22 -23 -24 -25 25 -27 -28 -29 -30 -31
leaf_value=-0.129715321668012 0.023371400837683791 0.057840811591552813 -0.10366675786305363 -0.032321144885513124 0.090770139863789179 -0.049078312874605734 0.097796112128481452 -0.017658815777205062 0.00066760510257688301 0.047331788103335992 0.14121181748640352 -0.052334365589066061 0.1005805622788615 0.13324770267278083 -0.04998987498500037 -0.087562563556884243 -0.058925389341776928 -0.03613269838814092 0.065744386865017712 0.03143650962931837 -0.0083395113941140669 0.0043683448634571952 0.060854317376148451 0.12485069440967674 0.076764422336170826 0.0045329587102091156 0.048362097818995087 -0.02751301335950623 -0.1114848590151504 -0.095491261478090395
leaf_count=9126 342 1372 1488 1951 861 412 2477 1373 1012 2451 8905 662 1865 714 1731 1089 2657 1241 1203 791 396 1964 405 3507 456 320 102 241 3617 3109
internal_value=0 0.841037 -0.752335 -0.225635 0.168819 -1.06374 1.17011 -0.0648033 0.0872535 0.237127 1.28123 -1.20872 0.720816 0.829211 -0.723357 -0.493391 -0.748732 -0.600376 0.386562 0.621149 0.428159 -0.139275 1.10259 1.13619 0.207062 0.469476 -0.444987 -0.860168 -1.24518 -0.900417
internal_count=57840 27789 30051 11051 8862 19000 18927 6496 6906 3824 15294 13405 3633 2366 5595 2672 4145 2330 2991 1652 1768 3915 6389 5984 1788 776 1833 3762 12743 3521
shrinkage=0.1


Tree=4
num_leaves=31
num_cat=0
split_feature=18 41 25 18 12 18 18 39 21 18 21 41 18 12 12 18 12 16 41 16 16 16 18 16 18 27 33 48 29 22
split_gain=7337.55 1260.77 1028.13 304.818 278.212 223.301 202.106 177.594 112.185 90.5903 79.5044 77.9418 65.9892 63.113 53.2462 44.3494 33.0417 32.5278 32.0896 29.9105 28.9751 27.4433 25.2616 24.925 24.8948 23.3834 22.9792 20.7794 19.689 16.981
threshold=-1.4999999999999998 57.500000000000007 0.52097541005879322 -3.4999999999999996 2.5000000000000004 -5.4999999999999991 -1.0000000180025095e-35 0.99826989619377171 17.500000000000004 -1.0000000180025095e-35 340.50000000000006 5.5000000000000009 -2.4999999999999996 4.5000000000000009 5.5000000000000009 -9.4999999999999982 2.5000000000000004 1.1454972243679029 8.5000000000000018 2.4916387021459454 6.3344220452807596 5.5986817166986791 -1.0000000180025095e-35 6.4562629800321032 -9.4999999999999982 2.3118415502977077 1.5000000000000002 0.14296263087106728 -5.4999999999999991 21.500000000000004
decision_type=10 10 10 10 10 10 10 8 10 10 10 10 10 10 10 10 10 10 10 10 8 8 10 8 10 10 10 8 10 10
left_child=2 4 3 11 7 24 13 9 20 29 25 17 -7 21 19 -13 -14 -1 -11 -6 -5 -3 -9 -10 -4 26 -8 -22 -20 -2
right_child=1 6 5 8 14 12 10 22 23 18 -12 15 16 -15 -16 -17 -18 -19 28 -21 27 -23 -24 -25 -26 -27 -28 -29 -30 -31
leaf_value=-0.12388612139038216 -0.0048371401355534298 0.052550232693885174 -0.087269603434691437 -0.035773643252827503 0.083306485859062529 -0.0042183586441932484 0.090302108393266661 -0.083506336959339025 0.0039274882698912845 0.0072325260046590028 0.13309744203949062 -0.11016164961555604 -0.029493984996243158 0.09277202039560814 0.12494780055861417 -0.079565982526110579 0.048158347005317549 -0.070904591565520605 -0.050429155041359135 0.028411781051109149 -0.065650366553061543 -0.0075022943081263357 -0.036806393987378901 -0.037279964430006536 -0.043946545421842807 0.054058647171470998 0.11658317368171166 -0.10197475879300932 0.056333895715245247 -0.045953958059949222
leaf_count=7695 1004 1372 773 582 861 3121 2477 858 1077 953 8903 3396 246 1865 714 4727 2162 506 73 791 1169 396 1045 1308 1826 403 3511 1463 1891 672
internal_value=0 0.777441 -0.687535 -0.919887 0.15346 -0.0790845 1.09059 -0.0585776 -0.514557 0.156134 1.19966 -1.06278 0.149036 0.659305 0.762014 -0.92192 0.401175 -1.20499 0.37314 0.56595 -0.763992 0.388175 -0.57587 -0.186686 -0.566159 1.02309 1.05623 -0.855542 0.523001 -0.213311
internal_count=57840 27789 30051 21923 8862 8128 18927 6496 5599 4593 15294 16324 5529 3633 2366 8123 2408 8201 2917 1652 3214 1768 1903 2385 2599 6391 5988 2632 1964 1676
shrinkage=0.1


Tree=5
num_leaves=31
num_cat=0
split_feature=18 41 25 18 16 18 29 18 12 18 41 12 16 22 41 16 17 53 18 12 18 12 16 18 12 13 41 22 12 16
split_gain=6099.74 1104.26 871.919 303.309 265.464 185.861 181.987 143.825 94.772 56.378 55.4432 54.0769 52.8001 49.699 48.8619 40.3592 39.5699 35.2829 34.3059 27.3445 24.4849 24.1448 22.0674 21.6106 21.5248 20.7626 20.6837 19.2083 19.8109 17.4964
threshold=-1.4999999999999998 89.500000000000014 0.18859064554530389 -4.4999999999999991 6.3344220452807596 -3.4999999999999996 -1.0000000180025095e-35 -1.0000000180025095e-35 3.5000000000000004 -2.4999999999999996 11.500000000000002 6.5000000000000009 1.8971835497770528 3.5000000000000004 6.5000000000000009 3.5726579895963142 30.027272727272734 13.500000000000002 -1.0000000180025095e-35 5.5000000000000009 -1.0000000180025095e-35 6.5000000000000009 2.6380905929797658 -9.4999999999999982 4.5000000000000009 21.500000000000004 23.500000000000004 19.500000000000004 3.5000000000000004 6.3665788678270543
decision_type=10 10 10 10 8 10 10 10 10 10 10 10 10 10 10 10 8 10 10 10 10 10 10 10 10 10 10 8 10 8
left_child=2 4 5 12 8 13 17 16 18 21 27 15 23 29 -8 25 24 -6 -2 -11 -10 -5 -15 -4 -3 -9 -20 -7 -29 -1
right_child=1 7 3 9 6 10 14 11 20 19 -12 -13 -14 22 -16 -17 -18 -19 26 -21 -22 -23 -24 -25 -26 -27 -28 28 -30 -31
leaf_value=-0.08309764705331496 0.0056848351271365843 0.052722045946325118 -0.092255585255299546 -0.015125016202836973 -0.057993181670105934 -0.048666408837548282 -0.012906687308161666 0.11810467452100593 0.053442766731790249 0.019869143504803635 -0.027893913635100694 0.12994335848319824 -0.029071992524580183 -0.094428008934828611 0.050260006569783168 0.062558009260785696 -0.0018091908316046454 -0.0098631585243740411 0.02696199616733045 0.06290441060320065 0.10464699198845584 0.033068686900279962 -0.038009055833239741 -0.057654069526528177 0.089817816636765427 0.090928700927731476 0.068332013836085864 -0.087038925811584067 0.090410761467557235 -0.12144411922589332
leaf_count=562 1166 1101 1272 2501 2069 895 700 4196 559 2129 1805 7019 1945 8326 1725 967 308 877 920 862 1502 503 295 1839 1683 1869 1128 1958 26 5133
internal_value=0 0.72077 -0.629974 -0.183171 0.213137 -0.902801 -0.100528 1.06731 0.545464 0.122021 -0.552997 1.16358 -0.54966 -1.02244 0.314274 1.03123 0.666855 -0.435405 0.331178 0.319507 0.903127 -0.07092 -0.924135 -0.715152 0.746755 1.09654 0.492899 -0.73174 -0.846153 -1.17521
internal_count=57840 27789 30051 11051 10646 19000 5371 17143 5275 5995 4684 14051 5056 14316 2425 7032 3092 2946 3214 2991 2061 3004 8621 3111 2784 6065 2048 2879 1984 5695
shrinkage=0.1


Tree=6
num_leaves=31
num_cat=0
split_feature=18 41 12 29 39 18 18 18 12 16 16 26 12 12 18 16 41 29 17 14 21 18 22 31 12 16 25 25 21 48
split_gain=5080.31 968.798 748.464 249.691 225.514 166.25 135.404 123.335 74.0108 70.052 66.925 58.0429 52.5179 50.7021 48.7115 37.775 36.4472 36.3102 33.4318 25.5521 25.3774 23.5504 21.8194 19.3638 19.15 18.6323 18.2153 18.0235 17.9371 16.3683
threshold=-1.4999999999999998 89.500000000000014 2.5000000000000004 -7.4999999999999991 0.99826989619377171 -5.4999999999999991 -1.0000000180025095e-35 -1.0000000180025095e-35 3.5000000000000004 7.7942121344793387 1.3526040055544506 0.1418100583308762 6.5000000000000009 3.5000000000000004 -2.4999999999999996 2.8178842645536375 24.500000000000004 -2.4999999999999996 30.027272727272734 13.500000000000002 12.500000000000002 -1.0000000180025095e-35 13.500000000000002 7.5000000000000009 4.5000000000000009 4.0373258476372715 1.061659247969444 2.4043844199165547 128.50000000000003 0.020843206951026861
decision_type=10 10 10 10 8 10 10 10 10 8 10 10 10 10 10 8 10 10 8 10 10 10 10 10 10 10 10 10 10 10
left_child=2 4 3 10 7 26 18 11 16 19 20 -2 15 21 27 -8 25 23 24 -5 -1 -6 28 -11 29 -9 -4 -7 -21 -3
right_child=1 6 5 9 13 14 12 8 -10 17 -12 -13 -14 -15 -16 -17 -18 -19 -20 22 -22 -23 -24 -25 -26 -27 -28 -29 -30 -31
leaf_value=-0.10686066601717603 -0.023752747928220005 0.067468645921227574 -0.064842395794634952 -0.052050772306806194 -0.072578097592364083 -0.012428915887627181 0.10739067887013312 0.025979211695807487 0.095144742721665926 -0.083592628905437408 -0.056824462799665937 0.034627050348453814 0.12385373394341906 0.092112055026926098 0.036054869374367256 0.072447546572638868 0.059360401594628999 -0.035755885200595632 -0.0016279904811693708 -6.2913054224378879e-05 -0.086349843473195992 -0.028077243902269303 -0.020081258950176189 -0.053185516155311599 0.083313118828076405 -0.051539392202566807 -0.030574299985142141 0.020823075514119549 0.081985253345129516 0.015836868149239961
leaf_count=8809 1641 686 1351 673 882 2159 4939 1996 1451 2471 1658 1229 7019 128 2395 2093 2071 1559 308 272 3850 1114 1125 1385 1683 134 1223 941 180 415
internal_value=0 0.669345 -0.57821 -0.782098 0.194258 -0.0555884 1.00376 0.345416 0.526833 -0.488168 -0.950218 0.00665704 1.10047 -0.397981 0.141444 0.967908 0.393469 -0.616008 0.612539 -0.190121 -1.00473 -0.473021 -0.0499812 -0.725201 0.68749 0.210363 -0.483626 -0.0232526 0.32333 0.480031
internal_count=57840 27789 30051 21982 10646 8069 17143 8522 5652 7665 14317 2870 14051 2124 5495 7032 4201 5415 3092 2250 12659 1996 1577 3856 2784 2130 2574 3100 452 1101
shrinkage=0.1


Tree=7
num_leaves=31
num_cat=0
split_feature=18 41 25 16 18 29 41 18 12 18 16 29 12 16 18 18 22 18 26 18 32 18 16 21 34 21 13 31 25 16
split_gain=4236.59 859.734 641.506 212.626 212.064 157.153 132.331 104.88 73.146 61.0663 57.9967 50.479 38.9358 31.2269 29.0772 28.603 26.0409 25.2972 25.2219 24.2211 23.7469 21.0889 19.312 17.5401 17.0915 16.9758 16.7918 16.6525 16.4793 16.2647
threshold=-1.4999999999999998 115.50000000000001 0.18859064554530389 5.5007574714370344 -6.4999999999999991 -6.4999999999999991 5.5000000000000009 -1.0000000180025095e-35 3.5000000000000004 -2.4999999999999996 1.1454972243679029 -1.0000000180025095e-35 7.5000000000000009 3.5338495158856742 -2.4999999999999996 -1.0000000180025095e-35 20.500000000000004 -1.0000000180025095e-35 1.1818853662460482 -1.0000000180025095e-35 8.5000000000000018 -10.499999999999998 4.0373258476372715 166.50000000000003 78.500000000000014 10.500000000000002 21.500000000000004 130.50000000000003 0.12402907856457607 5.7669691822197873
decision_type=10 10 10 8 10 10 10 10 10 10 10 10 10 8 10 10 10 10 10 10 10 10 10 10 10 10 10 10 8 10
left_child=2 3 5 8 21 10 17 16 15 18 25 -8 13 -9 23 -2 -3 -5 -6 -10 27 -4 28 -7 -16 -1 -13 -11 -17 -22
right_child=1 7 4 6 9 14 11 12 19 20 -12 26 -14 -15 24 22 -18 -19 -20 -21 29 -23 -24 -25 -26 -27 -28 -29 -30 -31
leaf_value=-0.10021297496097809 0.0072391736878855365 0.068646557486532866 -0.08427940300357184 -0.065767093829417214 -0.02826193543571592 -0.062633953103473042 -0.0076854642690020389 0.10440703750693783 0.045669225440449206 -0.0020393369817719603 -0.046645101000220984 0.065474714873189913 0.12054478140793992 0.070803098358434027 -0.032966848085957234 0.012840366557001076 0.0079412711370771324 -0.024008146099778978 0.0017196578932466154 0.094146285708214802 0.049565329595982172 -0.047949954343575268 -0.031013852241919389 0.0046038372408722331 0.051478230963828975 -0.082434725939657089 0.02642895770095063 0.046184181899060296 0.059338969495026733 -0.089883446575543299
leaf_count=8817 1243 2417 972 1070 1946 3593 1479 5449 646 1209 1151 802 5942 1836 1731 400 338 1374 2708 1728 1352 2434 128 169 102 3437 1164 395 1773 35
internal_value=0 0.622306 -0.531249 0.212052 -0.14857 -0.774498 -0.0585502 0.976441 0.498661 0.035111 -0.905141 0.20249 1.06568 0.956816 -0.488995 0.3168 0.606383 -0.418041 -0.107596 0.800756 0.262968 -0.579655 0.457616 -0.595069 -0.281752 -0.950877 0.423687 0.0959863 0.50532 0.459603
internal_count=57840 27789 30051 11807 11051 19000 5889 15982 5918 7645 13405 3445 13227 7285 5595 3544 2755 2444 4654 2374 2991 3406 2301 3762 1833 12254 1966 1604 2173 1387
shrinkage=0.1


Tree=8
num_leaves=31
num_cat=0
split_feature=18 41 12 18 12 29 41 18 18 12 12 16 12 25 16 39 18 43 32 18 17 53 13 29 18 29 48 53 18 18
split_gain=3535.34 762.602 560.231 235.453 192.321 130.477 121.896 88.794 51.5014 49.334 42.3333 38.6241 36.1785 32.0637 31.4955 30.1542 28.7432 27.5723 26.1114 21.8224 19.7109 16.8613 16.8241 16.7341 16.3922 15.4557 14.7126 14.5189 14.5171 14.0188
threshold=-1.4999999999999998 128.50000000000003 1.5000000000000002 -5.4999999999999991 2.5000000000000004 -6.4999999999999991 8.5000000000000018 -1.0000000180025095e-35 -1.0000000180025095e-35 3.5000000000000004 7.5000000000000009 3.6898030076330177 6.5000000000000009 1.061659247969444 3.5726579895963142 0.92340096763096879 -2.4999999999999996 1.0000000180025095e-35 8.5000000000000018 -1.0000000180025095e-35 30.027272727272734 12.500000000000002 21.500000000000004 -2.4999999999999996 -1.0000000180025095e-35 -2.4999999999999996 0.26401991614255771 26.500000000000004 -10.499999999999998 -5.4999999999999991
decision_type=10 10 10 10 10 10 10 10 10 10 10 10 10 10 10 8 10 10 10 10 8 10 10 10 10 10 10 10 10 10
left_child=2 4 5 13 6 21 15 20 -8 18 11 19 14 28 22 -2 -11 25 27 -6 -3 29 -9 -10 -17 -7 -25 -5 -4 -1
right_child=1 7 3 9 10 17 8 12 23 16 -12 -13 -14 -15 -16 24 -18 -19 -20 -21 -22 -23 -24 26 -26 -27 -28 -29 -30 -31
leaf_value=-0.10056138201380745 -0.0068756443899495841 0.063867500552456283 -0.081786179108849041 -0.034119315470235917 0.035325735510654509 -0.066355175050441778 -0.0047917477466666884 0.10488387458924808 -0.012657522468826739 0.0034792551554725173 0.10900443736644599 0.016906779100971533 0.11426533723425754 -0.027255298434155497 0.048626568735878561 -0.068326426668868082 0.039282936855366331 -0.01949265846332008 0.016573646553293828 0.078512528186399339 -0.0031924576758736844 -0.076059320182376905 0.076326946698720644 0.048492050357979419 -0.02833005352999985 -0.037978287711852771 -0.019806221659358754 -0.0079678271659515652 -0.054387846177002819 -0.079651135096187542
leaf_count=6452 1562 2401 1260 1679 757 2644 1579 3664 235 2033 724 1127 6836 1483 812 791 1704 1044 999 1729 197 2856 1541 2734 958 1168 142 1807 2839 2083
internal_value=0 0.578819 -0.488434 -0.192928 0.207795 -0.768995 0.0254775 0.936859 0.242847 0.0212787 0.581964 0.491756 1.02257 -0.526926 0.894521 -0.270355 0.193618 -0.489859 -0.12149 0.644355 0.582235 -0.903845 0.962271 0.404944 -0.456652 -0.572656 0.44982 -0.204389 -0.624948 -0.954206
internal_count=57840 27789 30051 13804 12338 16247 8001 15451 4690 8222 4337 3613 12853 5582 6017 3311 3737 4856 4485 2486 2598 11391 5205 3111 1749 3812 2876 3486 4099 8535
shrinkage=0.1


Tree=9
num_leaves=31
num_cat=0
split_feature=18 41 12 18 24 29 18 14 18 26 12 12 16 16 18 41 41 12 12 41 12 25 16 23 13 53 32 53 36 16
split_gain=2951.42 677.661 483.483 194.891 167.664 119.809 85.9107 72.0032 67.8862 53.431 36.1496 34.8366 29.67 29.246 27.2676 26.4363 24.7015 21.1831 20.5254 20.1714 18.9522 18.5837 17.638 17.6282 16.1161 16.0405 15.5096 15.4724 14.5084 14.2756
threshold=-1.4999999999999998 128.50000000000003 1.5000000000000002 -6.4999999999999991 21.500000000000004 -6.4999999999999991 -1.0000000180025095e-35 22.500000000000004 -1.0000000180025095e-35 2.6434662293701616 6.5000000000000009 5.5000000000000009 4.0373258476372715 3.5726579895963142 -3.4999999999999996 14.500000000000002 7.5000000000000009 4.5000000000000009 3.5000000000000004 20.500000000000004 4.5000000000000009 0.50162538653940103 1.4708693970125208 14.500000000000002 21.500000000000004 12.500000000000002 9.5000000000000018 152.50000000000003 0.096205265322912389 5.2549639724258279
decision_type=10 10 10 10 8 10 10 10 10 10 10 10 10 10 10 10 10 10 10 10 10 10 10 10 10 10 10 10 10 10
left_child=2 4 5 22 8 25 20 -6 21 14 13 12 19 24 -5 -7 17 -9 26 28 29 -2 -4 -14 -8 -1 -11 -16 -10 -3
right_child=1 6 3 9 7 15 10 16 11 18 -12 -13 23 -15 27 -17 -18 -19 -20 -21 -22 -23 -24 -25 -26 -27 -28 -29 -30 -31
leaf_value=-0.089893740809792205 -0.0042400673096763082 0.037393469422732549 -0.064122808339883916 -0.029304936515297076 -0.040275741856125452 -0.059130077121617712 0.10002495335294292 -0.017773189263811686 0.0035689685871084227 -0.022611822768237793 0.10997894121822555 0.094501771643539678 -0.077298039523937892 0.04479347768795431 -0.0080561999312853492 -0.028246032281423035 0.027646819415242958 0.1089046982926774 0.027600531917067885 0.067329425545832808 0.069089815666432131 0.030421187927232363 -0.037572397326484493 0.019521979654434318 0.071469716536618114 -0.070687512724614696 0.036401537506899909 0.027067162163021366 0.051360980980088525 -0.075804535906220591
leaf_count=8535 1263 950 2823 2474 2002 2652 3664 1090 438 685 6836 1001 96 812 2456 2204 1678 78 2668 2176 1600 1348 1802 474 1541 2856 244 652 694 48
internal_value=0 0.538558 -0.449157 -0.175162 0.189723 -0.715506 0.887464 -0.106644 0.392917 -0.00851572 0.97529 0.549818 0.464484 0.844911 -0.132882 -0.447351 0.108076 -0.115386 0.184264 0.544489 0.536051 0.130967 -0.53328 0.0279565 0.912634 -0.848503 -0.0717426 -0.00720911 0.326368 0.316149
internal_count=57840 27789 30051 13804 12338 16247 15451 4848 7490 9179 12853 4879 3878 6017 5582 4856 2846 1168 3597 3308 2598 2611 4625 570 5205 11391 929 3108 1132 998
shrinkage=0.1


Tree=10
num_leaves=31
num_cat=0
split_feature=18 41 16 16 18 29 29 18 18 41 12 48 41 41 15 12 41 27 27 13 33 18 1 27 13 37 18 17 0 53
split_gain=2468.25 767.545 273.397 183.45 174.266 107.106 81.1602 77.291 50.4405 37.6303 36.4281 36.1678 28.5995 25.7951 24.9192 22.859 21.0244 18.8502 17.7334 17.3042 16.5765 16.49 15.6153 15.4674 15.2544 14.3984 14.3756 13.4623 13.0828 12.83
threshold=-2.4999999999999996 128.50000000000003 0.85355339059327384 6.0304775124705259 -1.0000000180025095e-35 -1.0000000180025095e-35 -11.499999999999998 -1.0000000180025095e-35 -8.4999999999999982 325.50000000000006 3.5000000000000004 0.12910288327418476 31.500000000000004 8.5000000000000018 16.500000000000004 5.5000000000000009 31.500000000000004 2.680295396546398 2.2460961822018017 14.500000000000002 14.500000000000002 -1.0000000180025095e-35 13.973684210526317 1.3007870004482103 16.500000000000004 0.039401925113253668 -3.4999999999999996 30.027272727272734 1.5000000000000002 57.500000000000007
decision_type=10 10 10 8 10 10 10 10 10 10 10 8 10 10 10 10 10 10 10 10 10 10 10 10 10 10 10 8 10 10
left_child=2 3 6 7 14 11 -1 15 -4 23 20 24 25 -7 18 -2 -10 -11 27 -14 -9 -13 -23 -6 -5 -8 -18 -3 -15 -17
right_child=1 4 8 5 9 13 12 10 16 17 -12 21 19 28 -16 29 26 -19 -20 -21 -22 22 -24 -25 -26 -27 -28 -29 -30 -31
leaf_value=-0.085931437292672136 0.0054726755844978449 0.058031931457932499 -0.052636517714949621 0.0014394931266594035 0.080158750722605573 -0.0075129367736127941 -0.069494458965447078 0.028680033435905514 -0.030900482967462947 0.10370420941425484 0.076844859635225429 -0.059081139125650384 -0.049147673653956135 0.032287410467193182 0.010000894250793972 0.070208051223240156 -0.012429762528136833 -0.0064574012513537865 -0.0052903527620126907 -0.01462834722517826 0.078165283827741017 -0.027971342187251655 0.14934303675901758 0.037609629185460944 -0.02939005611221578 -0.042801954061007244 0.012746797990808184 0.0065324428087351234 0.12149366751244933 -0.035900521488555895
leaf_count=7972 3335 3089 1718 1363 3395 826 4625 2088 1699 8811 1985 1885 2077 1736 844 406 2769 94 240 937 386 738 21 553 1288 1220 1374 227 78 61
internal_value=0 0.401565 -0.517142 0.0914353 0.769669 -0.130894 -0.685392 0.317557 -0.203173 0.931102 0.524108 -0.299888 -0.54691 0.213563 0.41854 0.110715 -0.116745 1.02479 0.499335 -0.380331 0.359404 -0.47822 -0.23079 0.740389 -0.135583 -0.638428 -0.0399923 0.540911 0.361107 0.562399
internal_count=57840 33449 24391 16196 17253 7935 16831 8261 7560 12853 4459 5295 8859 2640 4400 3802 5842 8905 3556 3014 2474 2644 759 3948 2651 5845 4143 3316 1814 467
shrinkage=0.1


Tree=11
num_leaves=31
num_cat=0
split_feature=18 41 16 18 12 29 18 48 12 12 16 18 16 18 25 43 21 6 19 16 25 32 21 12 18 18 24 50 27 22
split_gain=2067.87 537.456 361.066 138.241 122.85 101.441 77.7171 74.2586 35.672 35.2671 31.5322 29.375 28.0093 26.682 22.5761 20.8688 20.5584 19.3799 17.9266 17.4361 17.1942 17.0022 16.5412 16.0033 14.624 14.4633 14.3597 12.7083 12.5483 12.4761
threshold=-1.4999999999999998 134.50000000000003 6.6708203352002675 -5.4999999999999991 2.5000000000000004 -6.4999999999999991 -1.0000000180025095e-35 0.090946348733233998 7.5000000000000009 7.5000000000000009 3.6898030076330177 -2.4999999999999996 3.157879490786232 -1.0000000180025095e-35 1.061659247969444 1.0000000180025095e-35 26.500000000000004 -1.0000000180025095e-35 -12.499999999999998 2.1407836215144651 0.38651230398539377 9.5000000000000018 12.500000000000002 9.5000000000000018 -5.4999999999999991 -1.0000000180025095e-35 19.500000000000004 0.014580823471050953 1.1654652690875207 16.500000000000004
decision_type=10 10 8 10 10 10 10 8 10 10 10 10 8 10 10 10 10 10 10 8 10 10 10 10 10 10 10 10 10 10
left_child=2 4 3 14 7 22 23 13 12 10 25 18 26 20 -1 -7 -15 19 -5 -9 -2 -13 24 -3 -4 -6 -8 -16 -14 -20
right_child=1 6 5 11 9 15 8 17 -10 -11 -12 21 28 16 27 -17 -18 -19 29 -21 -22 -23 -24 -25 -26 -27 -28 -29 -30 -31
leaf_value=-0.049122937119788601 -0.013141468985186555 0.038004873731092265 -0.08580929244005521 0.015297784446922306 0.029615954285726859 -0.044510563462242247 0.097352205687592702 0.0056756954080797607 0.10487692219962004 0.096228273694001457 0.0098845921310223607 0.0052177593031356578 0.0603817855923032 0.011219481748379185 -0.024600078969587335 -0.011291102345957104 0.043734056740697864 0.062844897585522905 -0.021707202055940993 -0.03694605271576587 0.035506707958729879 0.035006647827293812 -0.060218099493384615 0.083332900479660466 -0.063274495770575381 0.065126174664339037 0.068714556084850886 0.046859693099534097 0.0021494764929148244 0.0050996268217819805
leaf_count=4099 1439 2049 6451 1041 772 3829 3374 499 5883 748 1162 2017 1577 1619 1370 1050 1876 105 2703 2182 373 1366 2933 497 2113 1796 1603 113 235 966
internal_value=0 0.467029 -0.380777 -0.142428 0.163525 -0.618525 0.804635 0.0182526 0.896097 0.469683 0.389138 0.0227842 0.776852 0.163305 -0.405405 -0.370746 0.275103 -0.255036 -0.0795098 -0.288808 -0.0317207 0.169734 -0.746869 0.462438 -0.801272 0.531323 0.877664 -0.191138 0.524306 -0.146436
internal_count=57840 27789 30051 13675 12571 16376 15218 8093 12672 4478 3730 8093 6789 5307 5582 4879 3495 2786 4710 2681 1812 3383 11497 2546 8564 2568 4977 1483 1812 3669
shrinkage=0.1


Tree=12
num_leaves=31
num_cat=0
split_feature=18 12 12 41 18 29 18 18 12 29 26 18 41 29 14 34 49 18 18 39 12 16 29 1 23 12 40 53 18 31
split_gain=1724.21 483.212 310.972 159.155 114.369 94.3714 71.437 43.0111 38.0078 41.9752 33.9585 28.3291 27.9698 27.6919 24.5583 18.2027 16.4702 15.3199 13.9492 13.9299 13.8768 14.4874 13.8389 13.8021 13.8004 13.3143 13.0808 12.483 11.8956 11.8774
threshold=-1.4999999999999998 3.5000000000000004 1.5000000000000002 18.500000000000004 -6.4999999999999991 -3.4999999999999996 -1.0000000180025095e-35 -1.0000000180025095e-35 7.5000000000000009 -9.4999999999999982 2.6434662293701616 -1.0000000180025095e-35 173.50000000000003 -9.4999999999999982 22.500000000000004 76.500000000000014 0.14337101747173692 -10.499999999999998 -3.4999999999999996 0.92340096763096879 8.5000000000000018 3.1156285951877032 -10.499999999999998 22.30952380952381 13.500000000000002 3.5000000000000004 0.49390243902439029 7.5000000000000009 -3.4999999999999996 19.500000000000004
decision_type=10 10 10 10 10 10 10 10 10 10 10 10 10 10 10 10 8 10 10 8 10 10 10 10 10 10 8 10 10 10
left_child=2 3 5 11 17 13 20 -5 9 -8 18 16 14 28 24 -7 -2 -4 -6 26 21 -3 -14 -16 -9 27 -13 -12 -1 -15
right_child=1 6 4 7 10 15 8 12 -10 -11 25 19 22 29 23 -17 -18 -19 -20 -21 -22 -23 -24 -25 -26 -27 -28 -29 -30 -31
leaf_value=-0.077648401900346845 -0.01875583982992975 0.054397120827344339 -0.061421834368089762 0.011984942945172248 -0.022000322100035098 -0.027373681832404375 0.034598231125565732 -0.081515451472253878 0.10107355651322157 0.084491726871994743 -0.065478959173544724 0.012487510597465104 -0.10103024461782405 -0.058149339054739249 0.016008359288178491 0.045896438596197256 -0.05852320909676112 -0.03366283660170688 -0.0014409869026292118 -0.018779138713042147 0.07290883244277134 0.016218071578384948 0.072321047485893519 0.084429085245297228 0.061186763459294538 0.022452632961863447 -0.15269556931309586 0.0034387446025668528 -0.05195117097054152 -0.029208639148176136
leaf_count=8146 1225 991 1398 2233 2474 2587 1275 31 6513 4384 122 1763 25 3348 2031 147 743 3227 3108 1071 711 969 2177 157 1470 2668 20 807 1150 869
internal_value=0 0.433893 -0.349697 0.151903 -0.131219 -0.577248 0.770171 0.352659 0.865319 0.719736 -0.00468216 -0.134137 0.4661 -0.666415 0.356893 -0.231819 -0.326746 -0.414448 -0.104303 -0.00545761 0.447129 0.354059 0.699995 0.20861 0.57876 0.14986 0.106036 -0.0563931 -0.743309 -0.518535
internal_count=57840 27789 30051 12946 13804 16247 14843 8124 12172 5659 9179 4822 5891 13513 3689 2734 1968 4625 5582 2854 2671 1960 2202 2188 1501 3597 1783 929 9296 4217
shrinkage=0.1


Tree=13
num_leaves=31
num_cat=0
split_feature=18 12 16 41 18 29 18 41 18 18 14 53 22 14 21 23 17 12 41 39 41 1 34 36 26 47 38 36 49 47
split_gain=1445.52 517.613 187.044 160.122 134.313 66.2789 64.9619 39.2678 31.9357 30.9877 25.4695 23.9455 23.9348 20.8102 20.1648 19.9273 17.9887 17.1887 14.5789 14.5181 13.321 12.1485 12.0851 11.911 15.3796 11.894 11.6155 11.5605 11.0192 13.4375
threshold=-2.4999999999999996 3.5000000000000004 0.85355339059327384 18.500000000000004 -1.0000000180025095e-35 -11.499999999999998 -1.0000000180025095e-35 351.50000000000006 -8.4999999999999982 -1.0000000180025095e-35 22.500000000000004 6.5000000000000009 18.500000000000004 20.500000000000004 196.50000000000003 20.500000000000004 26.257575757575761 5.5000000000000009 31.500000000000004 0.055587085382772107 93.500000000000014 22.30952380952381 81.500000000000014 0.55682754230942044 1.2576528070195871 0.90757298179935497 0.91368667518092817 0.086226991399405206 0.0016246964417696128 0.99484683610784919
decision_type=10 10 10 10 10 10 10 8 10 10 10 10 10 10 10 8 10 10 10 10 10 10 10 10 10 8 8 10 10 10
left_child=2 3 5 9 17 -1 13 16 -4 15 20 -7 19 22 21 -2 -6 25 -10 -12 -8 -14 -5 24 -20 -3 -26 -11 -13 -30
right_child=1 4 8 6 7 11 10 -9 18 27 12 28 14 -15 -16 -17 -18 -19 23 -21 -22 -23 -24 -25 26 -27 -28 -29 29 -31
leaf_value=-0.072638753903049205 -0.0082570546413070073 -0.012839850878876636 -0.041373994206108045 0.015441115668502401 0.070991035310055892 -0.061663999185681932 0.046130144892441376 0.09542803323092991 -0.024258199762503735 -0.011424999863531016 0.057672359375012743 -0.042160936660210868 0.018653858122569696 -0.0055222417352898826 0.061603727337324832 -0.039825228233026699 0.024789603190321599 0.04760992140719178 -0.014445205722344732 -0.084160675500201967 0.0826571301159717 0.084287121049161251 0.056544122079399808 -0.01570248141952901 0.016353073331169265 0.02872498606754146 0.17108347226360965 0.014970984320107607 -0.024151483125869316 0.14883320920538462
leaf_count=7972 1278 387 1718 1550 3963 2656 1066 7651 1699 1660 43 4241 1976 2264 1328 2686 558 2514 926 128 1193 157 379 1557 1640 1474 20 1194 1942 20
internal_value=0 0.320107 -0.407498 0.0768428 0.660687 -0.556672 0.258757 0.82669 -0.148981 -0.164677 0.430606 -0.429692 0.310765 0.0769069 0.356828 -0.288556 0.645315 0.349863 -0.0810134 -0.468418 0.629461 0.233276 0.23285 -0.0171162 0.0670116 0.199612 0.182097 -0.00491181 -0.356885 -0.222424
internal_count=57840 33449 24391 16902 16547 16831 10084 12172 7560 6818 5891 8859 3632 4193 3461 3964 4521 4375 5842 171 2259 2133 1929 4143 2586 1861 1660 2854 6203 1962
shrinkage=0.1


Tree=14
num_leaves=31
num_cat=0
split_feature=18 23 21 25 16 12 18 41 18 12 12 16 18 24 21 14 39 21 19 31 24 14 16 42 18 22 48 39 39 16
split_gain=1209.62 374.421 260.281 139.263 81.2669 56.7001 54.6491 39.2707 36.4185 31.6199 25.3075 23.1484 22.4247 18.5323 20.9832 17.2421 17.3111 15.8591 16.5011 15.7105 15.4191 15.2091 14.9432 14.1408 13.7676 13.7209 13.8896 13.2232 12.7993 12.5532
threshold=-1.0000000180025095e-35 12.500000000000002 172.50000000000003 0.38651230398539377 7.7942121344793387 3.5000000000000004 -2.4999999999999996 27.500000000000004 -5.4999999999999991 7.5000000000000009 5.5000000000000009 3.157879490786232 -9.4999999999999982 12.500000000000002 16.500000000000004 20.500000000000004 0.01617262423714037 10.500000000000002 -5.4999999999999991 108.50000000000001 19.500000000000004 22.500000000000004 6.0304775124705259 14.500000000000002 -6.4999999999999991 8.5000000000000018 0.090946348733233998 0.51306679391682752 0.54262353704141442 3.560976235874548
decision_type=10 10 10 10 8 10 10 10 10 10 10 10 10 10 10 10 10 10 10 10 10 10 10 10 10 8 8 10 10 10
left_child=1 4 5 8 12 7 23 25 -3 11 15 20 -1 -10 -15 19 -17 18 -6 22 -4 -9 -8 24 -5 -2 -27 -7 -29 -25
right_child=2 3 9 6 17 27 10 21 13 -11 -12 -13 -14 14 -16 16 -18 -19 -20 -21 -22 -23 -24 29 -26 26 -28 28 -30 -31
leaf_value=-0.050724553705563946 -0.14793101669362355 -0.047327129555269756 0.087500469010418511 -0.020877038868279848 -0.075876918746705074 0.064441480303170678 0.023118937886964033 0.054156518080374964 -0.12060706533889398 0.096368052399270432 0.044286785232977521 0.03548579969499701 -0.020058914342192917 -0.027161362704913712 -0.0035179517344262655 0.033878471081605209 -0.0068961532038947591 -0.046327013406443913 -0.053376896645535743 0.061087000845437903 0.056473815519747596 0.021350925993901527 -0.091507075381347849 -0.052810390770193429 0.0067822761059179882 0.013087428166661473 -0.013688256037419405 -0.1386636328047561 0.02653460310938173 0.023707594634730957
leaf_count=1740 25 2584 3304 1109 5586 2228 1270 1259 69 5773 2421 1151 3772 3145 3410 603 1712 2669 3016 557 1750 1813 48 416 2685 1892 1432 33 257 111
internal_value=0 -0.219883 0.503821 -0.0352419 -0.489238 0.243107 0.123828 0.14779 -0.231247 0.803477 0.250578 0.676143 -0.285296 -0.156048 -0.144487 0.158509 0.0387286 -0.619382 -0.673733 0.307422 0.75957 0.342755 0.187277 -0.0510392 -0.00737134 0.00245423 0.0141161 0.577002 0.0812173 -0.363572
internal_count=57840 36923 20917 20140 16783 8939 10932 6421 9208 11978 6611 6205 5512 6624 6555 4190 2315 11271 8602 1875 5054 3072 1318 4321 3794 3349 3324 2518 290 527
shrinkage=0.1


Tree=15
num_leaves=31
num_cat=0
split_feature=18 23 41 25 16 16 18 18 26 53 12 12 18 12 31 16 16 21 19 14 29 14 49 39 16 8 24 41 24 42
split_gain=1012.79 315.714 240.275 113.95 72.9794 55.8664 44.8745 31.4995 31.2765 29.1577 21.7354 20.8723 19.3256 18.9076 18.3494 15.4891 14.9376 14.835 18.2187 14.7022 14.6887 13.7249 13.3264 14.0325 12.7418 13.0936 12.2377 11.9983 11.9706 11.5191
threshold=-1.0000000180025095e-35 12.500000000000002 225.50000000000003 0.38651230398539377 7.7942121344793387 4.9283173212436164 -2.4999999999999996 -7.4999999999999991 0.11111111111111115 6.5000000000000009 8.5000000000000018 7.5000000000000009 -9.4999999999999982 5.5000000000000009 16.500000000000004 2.5330606176099884 3.157879490786232 5.5000000000000009 -5.4999999999999991 22.500000000000004 -2.4999999999999996 20.500000000000004 0.11118603431482731 0.16007117437722423 6.0304775124705259 4.5000000000000009 12.500000000000002 77.500000000000014 19.500000000000004 14.500000000000002
decision_type=10 10 10 10 8 8 10 10 8 10 10 10 10 10 10 10 10 10 10 10 10 10 10 10 10 10 10 8 10 10
left_child=1 4 5 7 12 8 29 -3 20 -7 21 16 -1 15 -9 -10 28 18 -6 -11 27 24 23 -23 25 -8 -16 -2 -4 -5
right_child=2 3 11 6 17 9 10 14 13 19 -12 -13 -14 -15 26 -17 -18 -19 -20 -21 -22 22 -24 -25 -26 -27 -28 -29 -30 -31
leaf_value=-0.046877807795020383 -0.034787199651753323 -0.051288839488838646 0.087684986688536123 -0.00066645687320770358 -0.074465511792151703 -0.01490225590669709 0.034841230494080062 -0.023207336234021558 0.049454692851506568 0.041843731513871801 0.055597364371343008 0.094419341259983511 -0.018132752460936551 0.077216039300282868 -0.10174262993190791 0.010607615623403994 0.038965968920961852 -0.045028981441115654 -0.049435221601826548 0.0096455139968064513 0.01520517245067864 0.027595613075439687 -0.084119518970080964 -0.0013051603799867258 -0.060059958121720158 -0.090768217346700056 0.00095423847718763668 -0.21251516280804231 0.055807192075700521 -0.032884506181063554
leaf_count=1740 100 1691 2778 3794 4904 1450 2341 5096 2854 1114 979 5532 3772 1433 50 702 918 3454 2913 1944 720 1322 65 1801 62 41 2371 26 1346 527
internal_value=0 -0.20123 0.470295 -0.0319714 -0.452746 0.25156 0.112302 -0.210141 0.41817 0.0807065 0.227987 0.81127 -0.259532 0.498922 -0.157685 0.414853 0.686547 -0.57936 -0.643137 0.211696 0.0283703 0.181169 0.0892479 0.109628 0.301712 0.328063 -0.0117748 -0.668115 0.764009 -0.0460585
internal_count=57840 36923 20917 20140 16783 10343 10932 9208 5835 4508 6611 10574 5512 4989 7517 3556 5042 11271 7817 3058 846 5632 3188 3123 2444 2382 2421 126 4124 4321
shrinkage=0.1


Tree=16
num_leaves=31
num_cat=0
split_feature=18 12 16 16 29 18 18 27 25 21 32 33 6 48 23 19 39 27 12 29 47 34 48 53 37 18 25 42 14 53
split_gain=850.106 307.196 171.644 99.3669 62.0819 58.6487 42.2324 41.0198 29.9806 26.3221 23.8523 22.5116 18.2365 18.0777 16.0553 15.9026 15.299 13.5529 12.9582 24.4397 12.7766 12.7438 11.8911 14.0941 12.4511 11.7238 11.6379 11.2364 11.0205 10.8875
threshold=-1.4999999999999998 4.5000000000000009 6.6708203352002675 2.6575104370362097 -9.4999999999999982 -6.4999999999999991 -1.0000000180025095e-35 1.1654652690875207 0.57742134168118608 560.50000000000011 9.5000000000000018 27.500000000000004 -1.0000000180025095e-35 0.099246112173962467 12.500000000000002 -3.4999999999999996 0.717614307553332 -0.029199717717822194 7.5000000000000009 -8.4999999999999982 0.99988633780404645 76.500000000000014 0.0080685850069984709 352.50000000000006 0.34752560500317237 -3.4999999999999996 4.0477176882743366 123.50000000000001 21.500000000000004 57.500000000000007
decision_type=10 10 8 8 10 10 10 8 10 8 10 10 10 10 8 10 10 10 10 10 10 10 10 10 10 10 10 10 10 10
left_child=2 3 5 8 25 -1 14 12 11 18 16 17 13 20 -3 -6 -7 -2 19 -8 28 -17 -12 24 29 -4 -26 -25 -5 -24
right_child=1 6 4 7 15 10 9 -9 -10 -11 22 -13 -14 -15 -16 21 -18 -19 -20 -21 -22 -23 23 27 26 -27 -28 -29 -30 -31
leaf_value=-0.029783916470463596 0.033232684409884937 -0.081122297301941385 -0.061798534380404536 0.042335138355267643 -0.037662479179506311 -0.0041342629962471287 0.01970717773821783 -0.024674216590292369 0.053256067134153276 0.09224001253575026 0.031408693905870567 0.074514724168056254 0.061054236394731579 -0.020346544002439595 0.042530155955402216 -0.019660537849220283 -0.03985195904840752 0.004705058498873288 0.080365121571881915 0.073169072982177605 -0.0015148843770030687 0.041640014225335614 0.063344806367943221 -0.057931587385413791 -0.023105175510527237 -0.035843963964126237 0.087115086593043067 0.10299388025387218 0.011550944868633353 0.013578227514872605
leaf_count=4625 1472 55 8169 911 4241 5242 968 2417 3320 5733 1136 459 325 940 2031 2586 557 2039 2136 1570 1781 147 223 208 514 1233 44 21 1632 1105
internal_value=0 0.324409 -0.25067 0.138192 -0.431092 -0.0879713 0.684052 -0.0178512 0.3489 0.775594 0.00291841 0.221949 0.085363 0.0563458 0.389228 -0.280726 -0.0757209 0.165358 0.625435 0.502258 0.117703 -0.160524 0.144291 0.0529689 0.110943 -0.580001 -0.145071 -0.434546 0.222536 0.22007
internal_count=57840 27789 30051 15296 16376 13675 12493 8006 7290 10407 9050 3970 5589 5264 2086 6974 5799 3511 4674 2538 4324 2733 3251 2115 1886 9402 558 229 2543 1328
shrinkage=0.1


Tree=17
num_leaves=31
num_cat=0
split_feature=18 23 41 26 16 12 18 41 18 32 12 16 34 18 21 16 19 24 14 39 31 24 1 16 42 37 37 15 22 27
split_gain=721.091 228.026 201.954 80.7707 55.9794 42.6358 35.6554 31.2225 21.8415 20.2145 20.1337 16.7591 15.7665 14.9249 14.4684 13.9279 13.8413 13.3733 13.2103 12.9316 12.4528 11.9383 11.844 11.8087 11.6989 12.6539 11.5011 13.4152 11.3219 11.227
threshold=-1.0000000180025095e-35 12.500000000000002 225.50000000000003 0.47695956286094737 7.7942121344793387 3.5000000000000004 -4.4999999999999991 27.500000000000004 -2.4999999999999996 12.500000000000002 7.5000000000000009 4.9342902469849337 77.500000000000014 -9.4999999999999982 10.500000000000002 3.157879490786232 -5.4999999999999991 8.5000000000000018 22.500000000000004 0.42374160859143756 20.500000000000004 12.500000000000002 17.343137254901965 3.211955780420281 14.500000000000002 0.080648620971201637 0.060455458421823809 19.500000000000004 8.5000000000000018 2.5036775770249697
decision_type=10 10 10 10 8 10 10 10 10 10 10 10 10 10 10 10 10 10 10 10 10 10 10 8 10 10 10 10 8 10
left_child=1 4 5 6 13 7 20 28 22 12 15 17 21 -1 16 -4 -6 -10 -9 -7 -3 -8 24 -23 -5 -26 -20 -28 -2 -12
right_child=2 3 10 8 14 19 9 18 11 -11 29 -13 -14 -15 -16 -17 -18 -19 26 -21 -22 23 -24 -25 25 -27 27 -29 -30 -31
leaf_value=-0.040957065599373413 -0.13574660541348091 -0.043630138142155689 0.070141424720453024 0.0035190241670456802 -0.064678286963118031 0.055834522555323521 -0.062506741624514514 0.047107132303728039 0.044748166835788916 0.023274595957023594 0.089981559674057021 -0.0076962674376645892 0.022834488349862243 -0.015299336658969504 -0.035222086478524053 0.032848235501447678 -0.042997381095617578 0.019002015774313971 0.0056500317323404919 0.012608040335376491 -0.014412082909842479 0.0023161815455103089 0.1087165877218212 -0.018012907605080078 -0.066468913344906566 0.0030749624921952222 -0.028794909725333401 0.054139528221833377 0.00050008576695199989 -0.11905704194108568
leaf_count=1740 25 2597 4124 2867 5586 2723 205 1479 1514 822 5507 742 536 3772 2669 918 3016 3181 1418 578 1081 1662 40 4458 222 213 112 684 3324 25
internal_value=0 -0.16975 0.411532 -0.0263318 -0.390044 0.213294 -0.146875 0.12897 0.126949 -0.0726319 0.747743 0.2175 -0.109916 -0.221185 -0.506531 0.621478 -0.562205 0.268441 0.289323 0.478551 -0.343135 -0.139375 0.00160665 -0.122487 -0.0119109 -0.323472 0.179211 0.407219 -0.00565118 0.889618
internal_count=57840 36923 20917 20140 16783 10343 11361 7042 8779 7683 10574 5437 6861 5512 11271 5042 8602 4695 3693 3301 3678 6325 3342 6120 3302 435 2214 796 3349 5532
shrinkage=0.1


Tree=18
num_leaves=31
num_cat=0
split_feature=18 41 41 18 18 12 32 33 26 41 31 21 25 31 16 39 15 37 29 27 36 27 42 13 16 38 53 44 41 36
split_gain=601.507 191.38 183.637 91.3872 51.4477 37.0447 28.5146 28.4565 26.3686 20.2839 18.5279 16.9438 16.1921 15.7315 15.6061 15.288 18.2303 13.3123 14.3607 12.5577 12.3462 12.1279 11.8752 11.6209 11.5518 11.2305 11.554 11.1375 11.1136 10.9956
threshold=-1.0000000180025095e-35 12.500000000000002 225.50000000000003 -3.4999999999999996 -5.4999999999999991 4.5000000000000009 12.500000000000002 12.500000000000002 0.26447681706779574 855.50000000000011 1.0000000180025095e-35 24.500000000000004 2.9845457900146353 152.50000000000003 5.2923614928906675 0.60045110641791022 8.5000000000000018 0.046456366948170236 -8.4999999999999982 1.1872900773375219 0.30094415011690895 -3.8173357350103179 11.500000000000002 14.500000000000002 5.031566746415443 0.78462545590573285 11.500000000000002 11.500000000000002 272.50000000000006 0.20017889087656535
decision_type=10 10 10 10 10 10 10 10 10 10 10 10 8 10 10 8 10 10 10 10 10 10 10 10 10 10 10 10 10 10
left_child=1 4 5 8 12 7 13 10 23 14 -2 -8 -1 28 -4 -6 -17 -12 -19 -13 -15 -7 -22 -3 -21 26 -10 -28 -5 -25
right_child=2 3 9 6 15 21 11 -9 25 -11 17 19 -14 20 -16 16 -18 18 -20 24 22 -23 -24 29 -26 -27 27 -29 -30 -31
leaf_value=-0.040387892827346561 -0.0086469156752659905 -0.034917334136537782 0.064854858115869732 -0.0039757262663705425 -0.01416384537018163 0.10320598167306705 0.12006189420959197 0.047448823395782158 0.051880733444496757 0.089717400852416584 0.0083930086076355569 0.029240701974308555 -0.063767507895753112 -0.096947729047153777 0.00073234395885448105 0.04023832809651804 -0.038571517654650944 -0.035974863558266672 0.042518620251516343 0.0071686805290223478 0.03941928142217415 0.043616224755749472 -0.01002120132620684 -0.04232479481165187 -0.082158716466564086 0.06257634751086269 -0.011530925339980562 0.089160459300282685 0.040796133632097518 0.0019127754270805881
leaf_count=3694 1931 4823 6042 5756 3346 338 79 1283 135 4213 3240 3066 4616 41 319 133 3804 124 1365 764 975 2062 296 399 72 102 3595 46 264 917
internal_value=0 -0.154971 0.382431 -0.0309485 -0.371505 0.194813 0.0961934 0.132692 -0.18958 0.715024 0.0797695 0.247811 -0.524933 0.021421 0.610105 -0.242299 -0.350102 0.161586 0.349363 0.226405 0.239635 0.51176 0.276604 -0.291768 -0.0077706 -0.0615789 -0.0798363 -0.101976 -0.0213764 -0.111182
internal_count=57840 36923 20917 21330 15593 10343 11313 7943 10017 10574 6660 3981 8310 7332 6361 7283 3937 4729 1489 3902 1312 2400 1271 6139 836 3878 3776 3641 6020 1316
shrinkage=0.1


Tree=19
num_leaves=31
num_cat=0
split_feature=18 12 23 26 16 41 21 18 14 22 18 23 41 37 39 16 12 22 15 12 16 48 18 48 15 16 27 23 16 32
split_gain=501.009 166.319 161.36 56.9666 44.5422 43.2423 26.0805 25.0739 19.7244 24.0705 17.7792 16.0338 15.0499 14.2871 13.1781 13.1414 23.3998 12.9864 16.2474 12.7811 16.3025 12.5837 11.9206 11.5385 10.9501 11.338 10.9468 10.8657 10.372 10.1536
threshold=-1.0000000180025095e-35 4.5000000000000009 12.500000000000002 0.47695956286094737 7.7942121344793387 27.500000000000004 560.50000000000011 -4.4999999999999991 22.500000000000004 19.500000000000004 -1.4999999999999998 15.500000000000002 28.500000000000004 0.050014714537963516 0.055587085382772107 3.6055512754639896 10.500000000000002 5.5000000000000009 12.500000000000002 9.5000000000000018 3.5166239783080249 0.044465935955297665 -9.4999999999999982 0.093353413654618481 16.500000000000004 1.1454972243679029 1.2296340919151476 8.5000000000000018 5.0929096698643379 32.500000000000007
decision_type=10 10 10 10 8 10 8 10 10 10 10 10 10 10 10 10 10 10 10 10 10 10 10 10 10 10 8 8 10 10
left_child=2 5 4 7 22 27 15 -4 11 14 -5 -7 -9 21 -10 -3 26 18 -6 20 24 -11 -1 -22 -12 -26 -17 -2 -8 -25
right_child=1 6 3 10 17 8 28 12 9 13 19 -13 -14 -15 -16 16 -18 -19 -20 -21 23 -23 -24 29 25 -27 -28 -29 -30 -31
leaf_value=-0.035363038440437471 -0.13357256662591979 0.068188247017801115 -0.029111145439001854 0.0041766613189848541 -0.063699736867590853 -0.023394925319652156 0.087956899637477368 -0.015139368082110326 0.039393076083821664 0.025732065515442343 0.047750619071796306 0.054887735260741505 0.0033353756510346635 0.048433878464179625 -0.052760865096597553 0.030287846561061888 0.086179551298138923 -0.032513752676515816 -0.037927507234967378 0.062097425786757546 0.0089718868157739242 -0.019538659605344542 -0.012068231545018369 -0.084509000955750077 -0.07942949103815021 0.020471937513322505 -0.029681628997041201 0.0013705732462782399 0.024605998863403616 0.033644801628230629
leaf_count=1740 25 2462 3678 5532 3979 180 5439 4052 118 1797 1103 2588 3631 1471 362 1212 728 3952 3340 524 982 484 3772 121 60 405 272 3485 294 52
internal_value=0 0.354819 -0.141307 -0.0211291 -0.331901 0.176176 0.680059 -0.12315 0.311898 0.205612 0.108112 0.491391 -0.0613221 0.279253 -0.29773 0.523798 0.364059 -0.440466 -0.511596 0.248712 0.192524 0.15628 -0.181297 -0.00753904 0.34601 0.068824 0.182436 0.00373721 0.844518 -0.522277
internal_count=57840 20917 36923 20140 16783 10510 10407 11361 7000 4232 8779 2768 7683 3752 480 4674 2212 11271 7319 3247 2723 2281 5512 1155 1568 465 1484 3510 5733 173
shrinkage=0.1


Tree=20
num_leaves=31
num_cat=0
split_feature=18 41 41 18 18 12 32 37 12 53 18 16 25 44 47 37 24 34 16 16 39 15 0 40 25 36 21 35 18 32
split_gain=416.859 153.143 138.825 61.6242 42.4045 29.0952 22.8498 21.9109 20.6229 19.1082 18.9023 17.3653 14.0132 13.1791 12.3283 14.1488 12.3102 11.6584 11.522 11.4344 11.4211 14.4644 10.9467 11.7786 10.7726 11.4686 11.9089 10.4772 10.2198 9.98457
threshold=-1.0000000180025095e-35 225.50000000000003 12.500000000000002 -3.4999999999999996 -5.4999999999999991 2.5000000000000004 2.5000000000000004 0.020665161986644722 10.500000000000002 112.50000000000001 -12.499999999999998 3.7595115588806398 2.9845457900146353 19.500000000000004 0.90398675496688752 0.077181700231285635 19.500000000000004 261.50000000000006 4.5743851139051737 1.9617692030835674 0.60045110641791022 8.5000000000000018 1.5000000000000002 0.33420593368237356 0.31236920618855091 0.99416455920344715 7.5000000000000009 11.500000000000002 -1.4999999999999998 277.50000000000006
decision_type=10 10 10 10 10 10 10 10 10 10 10 8 8 8 10 10 10 10 10 10 8 10 10 10 8 10 8 10 10 10
left_child=2 5 4 10 12 7 -5 22 11 18 -4 16 -1 19 15 -8 -3 27 24 -12 -6 -22 23 -2 -7 26 -26 -17 29 -16
right_child=1 8 3 6 20 9 14 -9 -10 -11 13 -13 -14 -15 28 17 -18 -19 -20 -21 21 -23 -24 -25 25 -27 -28 -29 -30 -31
leaf_value=-0.034853201071703241 -0.00202780644311281 0.074774473980482981 -0.048547835494494415 -0.0016783093798969349 -0.011367227265278064 -0.017516613428870606 -0.042478192253253978 0.029198756968952078 0.089683052427120408 -0.019072344334568225 -0.018738037705150864 0.029969271669637372 -0.057271358360918734 0.14514424577215482 0.015650912766299829 0.00065366228620614445 0.039188953188909206 0.11104890204267739 0.01402003998393106 -0.0019335873604540681 0.037193210076055833 -0.032902278200590655 0.094107973369460279 -0.16087153370569701 -0.078014244462228863 0.095726056090328637 0.046959017647203699 0.089436346438575232 0.03498391994765452 -0.10924986311836925
leaf_count=3694 3978 4436 1068 5301 3346 132 282 1679 3291 464 6337 1676 4616 23 2407 968 1171 55 896 2589 133 3804 58 20 41 400 2675 70 2200 30
internal_value=0 0.32875 -0.128731 -0.0233838 -0.317835 0.159672 0.0810791 0.0662366 0.653516 0.329453 -0.155197 0.56475 -0.462744 -0.126273 0.174598 -0.000555861 0.658395 0.108564 0.385875 -0.130864 -0.200463 -0.295996 -0.0158052 -0.0289895 0.465724 0.503644 0.443233 0.0607009 0.229729 0.142105
internal_count=57840 20917 36923 21330 15593 10343 11313 5735 10574 4608 10017 7283 8310 8949 6012 1375 5607 1093 4144 8926 7283 3937 4056 3998 3248 3116 2716 1038 4637 2437
shrinkage=0.1


Tree=21
num_leaves=31
num_cat=0
split_feature=18 12 41 16 18 18 18 25 23 33 12 16 27 23 44 32 33 12 33 16 44 27 47 42 39 21 21 53 48 37
split_gain=348.367 192.639 68.9905 61.8096 39.2652 31.0642 25.8614 27.585 24.9269 19.2441 17.8491 28.6831 17.0319 16.9364 15.6769 13.0613 14.1434 12.9682 12.2691 11.4408 11.4074 11.2285 12.1145 10.9797 10.8218 10.5068 10.8456 10.3344 10.075 10.9595
threshold=-2.4999999999999996 5.5000000000000009 5.5000000000000009 2.6575104370362097 -1.0000000180025095e-35 -9.4999999999999982 -1.0000000180025095e-35 0.5643327514082016 16.500000000000004 27.500000000000004 10.500000000000002 3.5402416824524257 -1.1339800373216071 13.500000000000002 4.5000000000000009 3.5000000000000004 29.500000000000004 1.5000000000000002 92.500000000000014 5.5502037548845058 11.500000000000002 1.3265505166083604 0.94239341563786028 4.5000000000000009 0.4106752359490608 42.500000000000007 38.500000000000007 7.5000000000000009 0.012128625360650918 0.46015873015873021
decision_type=10 10 10 8 10 10 10 8 8 10 10 10 8 10 10 10 10 10 10 10 10 8 10 8 10 10 10 10 10 10
left_child=2 3 17 6 24 -4 -2 9 13 12 11 -6 -8 -5 18 16 -7 -1 23 20 28 -13 -23 27 -3 26 -15 -10 -17 -30
right_child=1 4 5 8 10 15 7 -9 14 -11 -12 21 -14 25 -16 19 -18 -19 -20 -21 -22 22 -24 -25 -26 -27 -28 -29 29 -31
leaf_value=-0.045754557287949832 0.009131094654779643 0.039975549357708084 -0.032563820041193341 -0.034027958251285274 0.075623702564654408 -0.016955898548703729 0.055370920179075481 0.05089389619228616 -0.022340109845057288 0.077614743852463974 0.086955479423681065 0.03619595272490856 -0.0024016959483971717 0.0083561347544971725 0.076912620100597878 0.010290096712542936 0.019017319609402866 -0.020435341399078218 0.086412147160591674 0.089396383984570116 0.10406057378116043 -0.12310970871302152 0.012118573320440387 -0.022301718027539143 0.0066037248106314258 0.028392992904342013 -0.068784316827419353 0.0010917139823090399 -0.0033566943847101842 -0.04002830728083933
leaf_count=8066 3575 1674 4134 337 3357 6095 405 3771 1116 358 3662 1653 1831 2017 111 1837 530 1329 80 60 43 78 185 3308 840 1764 88 3239 1832 465
internal_value=0 0.171185 -0.212015 0.070318 0.526645 -0.128809 0.219216 0.340052 -0.0288676 0.15022 0.665261 0.548939 0.0743236 0.105177 -0.102898 -0.0758202 -0.138331 -0.407194 -0.114007 0.0132176 -0.000202162 0.259832 -0.290278 -0.121858 0.28813 0.147719 0.0531666 -0.0533852 -0.0116975 -0.104925
internal_count=57840 33449 24391 22000 11449 14996 9940 6365 12060 2594 8935 5273 2236 4206 7854 10862 6625 9395 7743 4237 4177 1916 263 7663 2514 3869 2105 4355 4134 2297
shrinkage=0.1


Tree=22
num_leaves=31
num_cat=0
split_feature=18 21 12 29 33 12 27 25 14 48 16 32 32 37 53 12 29 27 48 18 53 47 48 47 7 37 23 41 2 47
split_gain=292.719 126.721 100.308 62.9819 29.6283 23.6942 19.7211 17.6014 15.3335 14.7639 19.7075 13.6332 13.0269 12.4575 11.9238 11.0065 10.8644 10.8293 12.6249 10.7349 11.5336 10.5777 10.4994 16.7955 10.1691 11.2655 10.0632 10.5809 10.056 9.57961
threshold=-1.0000000180025095e-35 340.50000000000006 2.5000000000000004 -8.4999999999999982 12.500000000000002 5.5000000000000009 2.680295396546398 1.595991028755775 11.500000000000002 0.043521308652604396 3.3640244544575073 12.500000000000002 2.5000000000000004 0.21256291574980399 17.500000000000004 7.5000000000000009 -5.4999999999999991 0.68209012997199836 0.033431834045768945 -11.499999999999998 128.50000000000003 0.99123287408005234 0.12910288327418476 0.97445963225267662 -1.4999999999999998 0.50064267352185099 15.500000000000002 53.500000000000007 7.5000000000000009 0.98073769059314786
decision_type=10 10 10 10 10 10 10 10 10 8 10 10 10 10 10 10 8 10 8 10 8 8 10 10 10 8 10 10 10 10
left_child=2 4 3 13 5 9 15 16 -5 10 12 22 29 19 -13 -3 28 -14 -19 20 -1 -7 23 -10 -11 -26 27 -6 -4 -2
right_child=1 6 7 8 26 21 -8 -9 11 24 -12 14 17 -15 -16 -17 -18 18 -20 -21 -22 -23 -24 -25 25 -27 -28 -29 -30 -31
leaf_value=-0.036639869240055349 0.032425832937973346 0.054247218590307546 -0.0047516645988346512 -0.032178939752857537 -0.1582252889761534 0.027410178181490819 -0.06475631794392904 0.01368534969025223 0.0083740380090851115 -0.010770266772917867 -0.024526600332556256 0.13071473995033114 0.053161136124899179 -0.0086858303162098954 0.013995853341302345 0.079586700609943439 0.01139697949442655 0.012490590432381056 -0.19599390999994301 -0.031150408635011641 -0.070279361920708661 0.083059934576848696 -0.026169500348251676 -0.012889430658207102 0.0041757870563969421 0.11346698696820179 0.045133499067900595 0.015408923514739034 -0.035007166359750208 0.0034383387176065414
leaf_count=2108 903 3691 3360 1475 27 872 97 5957 2534 2544 603 41 1062 1191 777 5115 1637 310 21 9437 1446 566 1374 4996 164 62 2731 111 590 2038
internal_value=0 0.283323 -0.107641 -0.198874 0.153266 0.0952302 0.649498 0.0532838 -0.0880346 0.0566128 0.136954 -0.0601951 0.194862 -0.329193 0.197322 0.6713 -0.0319196 0.408104 -0.0113545 -0.354845 -0.491522 0.477466 -0.0853394 -0.054302 -0.0694348 0.398806 0.413273 -0.324638 -0.0927604 0.115857
internal_count=57840 20917 36923 25379 12014 9145 8903 11544 11197 7707 4937 9722 4334 14182 818 8806 5587 1393 331 12991 3554 1438 8904 7530 2770 226 2869 138 3950 2941
shrinkage=0.1


Tree=23
num_leaves=31
num_cat=0
split_feature=18 12 41 16 18 18 33 23 12 16 25 18 27 13 44 53 53 48 23 4 18 12 25 24 49 50 8 34 27 36
split_gain=243.874 145.749 52.7252 45.1417 31.9803 22.3352 22.3271 19.6748 17.7612 27.5577 13.9264 17.2198 15.7994 12.9385 12.5416 12.1933 15.8438 12.0463 11.6777 11.1291 10.977 10.8598 10.7043 11.2839 10.6309 11.9708 10.3755 10.242 10.1761 10.0801
threshold=-2.4999999999999996 5.5000000000000009 5.5000000000000009 2.6575104370362097 -1.0000000180025095e-35 -9.4999999999999982 25.500000000000004 16.500000000000004 10.500000000000002 3.5402416824524257 0.59468739285531103 -1.4999999999999998 0.55410804081013409 6.5000000000000009 4.5000000000000009 82.500000000000014 69.500000000000014 0.35339366515837117 20.500000000000004 1.7229036805497466 -1.0000000180025095e-35 1.5000000000000002 2.2795316938551546 5.5000000000000009 0.0014496255980274728 0.016139886250162813 3.5000000000000004 15.500000000000002 0.37715727009736977 0.82870012870012888
decision_type=10 10 10 8 10 10 10 8 10 10 8 10 8 10 10 10 10 10 10 10 10 10 10 8 10 10 10 10 10 10
left_child=2 3 21 6 -3 -4 10 13 9 -6 12 -12 15 -5 -9 16 17 -2 -14 -13 -8 -1 23 28 25 -7 -20 -18 -11 -26
right_child=1 4 5 7 8 24 20 14 -10 22 11 19 18 -15 -16 -17 27 -19 26 -21 -22 -23 -24 -25 29 -27 -28 -29 -30 -31
leaf_value=-0.040293009641549422 0.013282062367128384 0.025442824127442032 -0.027743092216366578 -0.10769352534541261 0.070254392608896141 -0.01458062758522859 0.022263822349850595 -0.010144522206818522 0.082411064831205083 0.0036695239894224707 -0.0062697672954190658 0.034894626587225593 0.0077137938322505376 0.010640397159742172 0.070354839413984557 0.037579950242779603 -0.002998056499377998 -0.1066756515338264 -0.029360602222789189 -0.12542946655561793 0.065651503334229797 -0.016813958372222746 0.028836387400632296 -0.0088740800791665009 0.0064192212744589505 0.020402403987980062 -0.19715356062332473 -0.15057337335314336 -0.2971751267669106 -0.021153985810161757
leaf_count=8066 1332 2514 4134 42 3357 6083 473 7743 3662 20 596 3515 644 4164 111 1082 44 37 739 34 1371 1329 1687 183 3551 502 21 52 26 726
internal_value=0 0.145495 -0.179172 0.0592285 0.468509 -0.106836 0.188265 -0.0255183 0.60401 0.484485 0.140041 0.248601 0.0482857 0.0939525 -0.091613 0.156789 0.0418243 0.0981858 -0.143891 0.334978 0.471192 -0.354863 0.195646 -0.417733 -0.0622847 -0.118764 -0.337121 -0.843356 -1.80547 0.0184918
internal_count=57840 33449 24391 22000 11449 14996 9940 12060 8935 5273 8096 4145 3951 4206 7854 2547 1465 1369 1404 3549 1844 9395 1916 229 10862 6585 760 96 46 4277
shrinkage=0.1


Tree=24
num_leaves=31
num_cat=0
split_feature=18 21 16 29 18 33 12 27 12 36 50 21 41 21 3 37 22 27 47 47 48 35 32 48 36 37 32 47 49 37
split_gain=206.836 102.34 73.0525 33.4871 26.0231 22.0316 16.7753 15.854 13.535 12.8508 12.6325 12.2432 11.1263 10.7754 11.6392 10.74 12.8516 10.3728 10.2401 9.9193 9.42695 8.76352 10.4905 9.42863 12.15 11.1135 12.5159 14.7626 11.3726 10.9263
threshold=-1.0000000180025095e-35 340.50000000000006 7.7942121344793387 -9.4999999999999982 -3.4999999999999996 12.500000000000002 5.5000000000000009 2.680295396546398 6.5000000000000009 0.11092639385685692 0.016139886250162813 1357.5000000000002 1054.5000000000002 12.500000000000002 8.5000000000000018 0.037886762360446587 7.5000000000000009 2.0633294490712069 0.97184020654203451 0.99123287408005234 0.047626509080598713 9.5000000000000018 9.5000000000000018 0.0078760835042678504 0.33028817742552236 0.41692229038854811 13.500000000000002 0.79298029556650251 0.043520664895120721 0.39224362311296196
decision_type=10 10 8 10 10 10 10 10 10 10 10 10 10 10 8 10 10 10 8 8 10 10 10 10 10 10 10 10 10 8
left_child=2 5 4 -4 10 6 9 12 17 -2 21 -10 -3 -12 -15 20 -17 -6 -16 -8 -11 22 -1 24 -24 26 -25 -28 29 -29
right_child=1 7 3 -5 8 -7 19 -9 11 15 13 -13 -14 14 18 16 -18 -19 -20 -21 -22 -23 23 25 -26 -27 27 28 -30 -31
leaf_value=-0.015857053241246918 -0.0077538975196222541 0.052108774096684608 -0.034063946096166316 -0.011987585962412978 0.0062509587787116742 0.036038522980058399 0.021601233809631627 -0.053755339103683908 0.030346660037708736 0.011364844424011129 0.12977150170473806 -0.026748958494614162 0.080571811665098178 0.12532397229850678 -0.0045289610902575069 -0.15447307856215853 0.031665503726898032 -0.016466286080669315 0.12488155043661964 0.078013554952419795 -0.017600080319572865 -0.0535993818296642 0.046642304802372088 0.055402696932639009 -0.0078285680632519151 -0.043003524104454544 0.083297940890801558 -0.014344190589154407 -0.099910111566698115 0.13329474734829114
leaf_count=5388 2377 5472 9972 8475 7102 2869 872 97 1937 2896 42 251 3334 41 432 20 1680 982 30 566 734 218 399 174 340 337 73 633 72 25
internal_value=0 0.244067 -0.0902121 -0.212907 -0.00162575 0.129384 0.0797912 0.593398 0.069765 0.0481625 -0.0950176 0.240611 0.615601 0.222733 0.13669 0.11883 0.289985 0.0339514 0.0400471 0.414785 0.0510693 -0.118528 -0.105196 0.0236218 0.213797 -0.0872962 0.0275573 -0.0848665 -0.17717 -0.089779
internal_count=57840 20917 36923 18447 18476 12014 9145 8903 10272 7707 8204 2188 8806 545 503 5330 1700 8084 462 1438 3630 7659 7441 2053 739 1314 977 803 730 658
shrinkage=0.1


Tree=25
num_leaves=31
num_cat=0
split_feature=18 21 18 32 22 33 48 12 27 23 31 27 49 18 41 4 37 36 23 34 21 41 34 18 39 38 53 16 16 37
split_gain=171.012 90.6074 64.8665 31.7493 28.3154 19.2428 16.9411 15.8712 14.1655 14.9241 13.9565 13.6295 10.9687 10.9578 10.8603 10.7357 10.2585 10.0075 11.0986 9.79774 9.51936 11.0261 9.32447 9.26203 9.23058 9.19122 9.06758 8.80992 9.09212 8.79541
threshold=-1.0000000180025095e-35 340.50000000000006 -6.4999999999999991 2.5000000000000004 2.5000000000000004 1.5000000000000002 0.058786764705882365 5.5000000000000009 2.3118415502977077 15.500000000000002 19.500000000000004 2.680295396546398 0.00630086680341428 -13.499999999999998 1054.5000000000002 1.033946949001088 0.086219390304847585 0.11092639385685692 20.500000000000004 6.5000000000000009 59.500000000000007 38.500000000000007 132.50000000000003 -2.4999999999999996 0.78730700755917471 0.1061699708310674 6.5000000000000009 4.0373258476372715 4.6560483443002614 0.16516030091017161
decision_type=10 10 10 10 10 10 10 10 8 10 10 10 10 10 10 8 10 10 10 10 10 8 10 10 10 10 8 10 10 10
left_child=2 5 4 10 -1 7 -5 17 9 20 -4 14 -6 -14 29 16 -8 22 27 23 21 -7 26 -18 -20 -10 -2 -19 -29 -3
right_child=1 11 3 6 12 8 15 -9 25 -11 -12 -13 13 -15 -16 -17 19 18 24 -21 -22 -23 -24 -25 -26 -27 -28 28 -30 -31
leaf_value=-0.045742840521895013 -0.040142615983129126 0.041440847701924306 -0.013498378865995267 0.014360981078724806 -0.022281202239512382 -0.041079531938553557 -0.078810861261334075 0.044549352606765666 -0.086223912939646957 0.032477184693305877 0.00074690106043683784 -0.046552851234889184 -0.071755175060807516 0.0013971211612575944 0.078068682680899684 -0.012484048373101631 -0.10047710063768074 0.030558261481883033 -0.0044486803178605859 0.090580535870513179 0.018745445888109124 -0.22472852082082173 -0.13149166118626021 0.070276574626936705 0.089330367545799413 0.0026714522067052653 -0.0024132740506644362 -0.11593019180260888 0.008026842481137348 0.078155646866483297
leaf_count=4167 324 4243 10184 6215 7083 64 30 980 111 4696 4801 97 170 2124 3334 1966 29 1444 2179 127 149 27 50 27 56 231 1564 42 97 1229
internal_value=0 0.224523 -0.0818744 -0.0196298 -0.238038 0.117759 0.0851512 0.040338 0.248226 0.289646 -0.0831339 0.563236 -0.170175 -0.0267116 0.585299 -0.0757973 0.380498 0.00757347 0.0834478 0.569044 -0.360662 -0.879381 -0.111666 -0.156667 -0.0198197 -0.233815 -0.0936503 0.242435 -0.281683 0.490751
internal_count=57840 20917 36923 23379 13544 12014 8394 6736 5278 4936 14985 8903 9377 2294 8806 2179 213 5756 3818 183 240 91 1938 56 2235 342 1888 1583 139 5472
shrinkage=0.1


Tree=26
num_leaves=31
num_cat=0
split_feature=12 18 18 23 16 12 16 14 21 33 4 14 27 27 47 39 12 50 16 34 39 25 6 44 37 42 21 31 21 36
split_gain=145.356 77.4049 59.4116 26.7335 24.3513 21.9291 35.6931 16.5115 13.6656 13.6635 15.4159 12.9193 12.2188 10.8565 13.9824 15.9416 10.8087 10.2362 14.1158 10.2427 9.88274 13.6287 9.8149 9.38165 9.2582 11.317 9.72703 10.985 9.20333 9.0389
threshold=4.5000000000000009 -3.4999999999999996 -1.0000000180025095e-35 3.5000000000000004 2.6575104370362097 10.500000000000002 3.5959076498142273 19.500000000000004 42.500000000000007 25.500000000000004 1.4174204122999134 16.500000000000004 1.0000000180025095e-35 2.3118415502977077 0.92474803653891524 0.717614307553332 3.5000000000000004 0.026284386383620153 4.7159579819582218 46.500000000000007 0.095034180657773276 1.1344979438140195 -2.4999999999999996 4.5000000000000009 0.0021390398799392384 7.5000000000000009 126.50000000000001 549.50000000000011 7.5000000000000009 0.76156393275598588
decision_type=10 10 10 10 8 10 10 10 10 10 10 10 8 10 10 10 10 8 10 8 10 10 10 10 10 10 10 10 10 10
left_child=1 3 20 11 9 6 -4 8 -6 10 13 16 23 14 -3 -16 -1 22 19 -19 29 -22 -8 -9 -23 26 -26 -28 -17 -2
right_child=2 4 5 -5 7 -7 17 12 -10 -11 -12 -13 -14 -15 15 28 -18 18 -20 -21 21 24 -24 -25 25 -27 27 -29 -30 -31
leaf_value=-0.044534921820993674 0.039908758899440323 -0.0030981180251013884 0.05861182250450421 -0.013832896311622484 -0.0018749408953203724 0.075938793356327916 0.0037586428520187186 -0.0048012578157718691 0.02163683090127352 0.035180243538191575 -0.1593577686944227 -0.0020841037985545557 -0.021960124721897727 -0.016518602270200536 0.023274911620536503 -0.12320952774151568 0.1150094773431327 0.11588770747537942 -0.29205683045692121 -0.17740409920557892 -0.036771327773955406 -0.019792762974532408 0.080793881359990785 0.076274524038623032 -0.0034344629517269933 -0.0041512601320323498 0.040678451800022025 -0.038566050560627785 -0.011879572038845466 0.0069279288775187329
leaf_count=5029 902 2196 4527 13390 3841 3662 1951 4618 1826 1566 31 750 2880 747 4626 35 22 27 24 20 336 483 196 78 423 1138 1230 105 416 765
internal_value=0 -0.0612569 0.25564 -0.188572 0.0221882 0.474789 0.369844 -0.0362097 0.0549494 0.116931 0.0822696 -0.373023 -0.10273 0.0885592 0.117923 0.189827 -0.432424 0.0621796 -1.07971 -0.068306 0.105551 0.0408554 0.102664 -0.036316 0.0860979 0.135204 0.248361 0.348086 -0.231905 0.248041
internal_count=57840 42051 15789 19191 22860 10407 6745 13243 5667 9617 8051 5801 7576 8020 7273 5077 5051 2218 71 47 5382 3715 2147 4696 3379 2896 1758 1335 451 1667
shrinkage=0.1


Tree=27
num_leaves=31
num_cat=0
split_feature=18 12 16 12 25 29 27 6 26 36 33 37 49 49 53 36 38 16 48 4 38 49 42 15 47 27 19 37 32 33
split_gain=123.939 87.1281 38.0437 33.3948 26.6458 19.0528 16.0742 15.809 11.9469 11.8875 11.65 11.4571 11.3238 13.7392 13.699 11.0481 10.8774 10.1415 10.095 10.0695 9.55739 9.10486 9.27387 14.2744 14.6232 13.6581 11.2188 9.08255 8.97851 8.8212
threshold=-1.4999999999999998 7.5000000000000009 2.6575104370362097 2.5000000000000004 0.6110614618477842 -8.4999999999999982 0.91053242995027228 -1.0000000180025095e-35 2.4987503794215598 0.025866188769414579 30.500000000000004 0.22174527143208059 0.020411272370008334 0.027280842085738798 154.50000000000003 0.38555779943854307 0.34217562623135384 1.3526040055544506 0.018873012965337572 2.0832245224250383 0.71535181236673784 0.016133370351732637 13.500000000000002 20.500000000000004 0.84623266078184123 0.028272225804654043 -1.4999999999999998 0.14957152274225446 14.500000000000002 280.50000000000006
decision_type=10 10 8 10 8 10 10 10 10 10 10 10 10 10 10 10 8 10 8 10 10 10 10 10 8 10 8 8 10 8
left_child=3 2 4 5 10 11 -3 9 15 -4 17 -1 14 16 -7 -8 -14 21 -6 -20 -19 28 -23 -24 26 -26 -25 -16 -2 -10
right_child=1 6 7 -5 18 12 8 -9 29 -11 -12 -13 13 -15 27 -17 -18 20 19 -21 -22 22 23 24 25 -27 -28 -29 -30 -31
leaf_value=-0.025949094438673159 0.0082160628347668612 0.060494740448204479 -0.013967605592778416 0.0011010654977305476 0.044989157230614932 -0.015015124550058887 0.019881047729832971 0.044137129476748423 0.026464931679811395 0.0029253690092488132 0.050959002348103404 0.0013765366282608429 0.044451951046980284 0.00079100437654037548 0.013084329534056938 -0.290950868610791 0.20589037828908366 -0.037781467394440021 0.022625601920380607 -0.14176629639387203 0.10172625130342579 -0.0032070894152079216 0.070367397109844729 -0.18032806906560553 -0.061183520840603738 -0.37733013982548619 0.029630291737512526 0.12585150150210819 0.048147761173688977 -0.18489683728357423
leaf_count=12248 1691 6570 2936 8069 3759 6659 24 455 803 7083 449 1133 166 1219 501 24 22 425 2263 34 23 584 37 21 22 28 50 34 475 33
internal_value=0 0.138896 0.0803078 -0.0985366 0.210889 -0.157039 0.529927 -0.00777687 0.097566 -0.0255971 0.0642363 -0.232014 -0.0822265 0.0950366 -0.119799 -1.46329 0.62536 0.0234886 0.347259 0.204787 -0.293266 0.0779245 -0.158438 -0.754967 -1.21001 -2.50551 -0.521403 0.201917 0.154674 0.202024
internal_count=57840 27789 20335 30051 9861 21982 7454 10474 884 10019 3805 13381 8601 1407 7194 48 188 3356 6056 2297 448 2908 742 158 121 50 71 535 2166 836
shrinkage=0.1


Tree=28
num_leaves=31
num_cat=0
split_feature=18 21 41 18 26 37 41 38 19 12 47 33 40 37 49 27 27 25 2 40 41 16 16 29 53 31 16 38 27 48
split_gain=104.821 65.1614 39.9546 19.3332 15.0543 13.4566 11.7896 11.3397 10.7107 10.6793 12.4884 14.1913 11.1393 9.66176 14.4964 14.3665 14.3654 14.8123 9.644 9.64128 9.95356 9.07421 8.98187 10.7739 9.24936 9.40978 15.4056 16.0532 10.8797 8.99423
threshold=-1.0000000180025095e-35 340.50000000000006 12.500000000000002 -6.4999999999999991 2.6434662293701616 0.013769367699259526 1054.5000000000002 0.0046071157356527325 -14.499999999999998 5.5000000000000009 0.98883305067837191 122.50000000000001 0.40593434343434348 0.16516030091017161 0.0084775708211055883 0.25253227525277305 0.28898698893032321 0.39470694637299258 13.500000000000002 0.022745319794022813 111.50000000000001 3.0985774434585385 2.5330606176099884 -3.4999999999999996 178.50000000000003 17.500000000000004 3.0304002658590568 0.011889056414122379 -0.24429390945298343 0.03573252590106523
decision_type=10 10 10 10 10 10 10 10 10 10 8 8 10 10 10 10 10 10 8 8 10 10 10 8 10 8 10 10 8 10
left_child=2 5 3 -1 8 9 13 -7 -4 12 11 -11 22 14 -3 -16 -17 -18 19 -9 -21 -22 23 29 25 28 27 -27 -24 -2
right_child=1 6 4 -5 -6 7 -8 18 -10 10 -12 -13 -14 -15 15 16 17 -19 -20 20 21 -23 24 -25 -26 26 -28 -29 -30 -31
leaf_value=-0.029640852198589664 0.077147772922762606 0.046776596436059005 -0.029824245628194641 -0.010252080941521212 0.0084187259730733998 0.0062503612186250307 0.071339244200509272 0.02193035040762828 -0.0031798509755806407 0.0084998774025318823 0.079682216236440673 -0.28771254073007713 -0.14380580662088552 0.071772790715756304 0.030466021971075272 -0.34745613856497748 -0.26470213294996608 -0.017839341869477072 0.034775316991884103 0.0089753645538536275 -0.39890681512882664 -0.10606507421397478 0.027562199402264943 0.0020790856389865122 -0.15873992680861548 -0.014885971845838057 0.023886800255775047 -0.26942458272807834 -0.073912411603537245 -0.047646863644028953
leaf_count=7356 302 2940 986 8237 6112 2192 3338 112 14232 245 516 20 23 1237 861 23 21 483 3179 22 20 24 68 4589 31 47 340 30 194 60
internal_value=0 0.180728 -0.0638611 -0.172636 -0.00775436 0.0923954 0.489062 0.198687 -0.0456655 0.0243194 0.432302 -0.131901 0.00122936 0.390419 0.31065 0.000554685 -0.471588 -0.349551 0.313372 -0.398311 -1.25776 -2.23036 0.00844283 0.0435382 -0.231287 -0.181257 0.0519212 -1.05101 -0.488185 0.552145
internal_count=57840 20917 36923 15593 21330 12014 8903 5549 15218 6465 781 265 5684 5565 4328 1388 527 504 3357 178 66 44 5661 4951 710 679 417 77 262 362
shrinkage=0.1


Tree=29
num_leaves=31
num_cat=0
split_feature=12 18 18 14 53 25 21 13 16 16 24 16 34 16 25 33 2 24 42 50 13 27 50 34 49 38 38 27 49 19
split_gain=89.0755 52.0463 30.9285 27.6274 31.6116 21.7539 13.791 13.207 12.9915 12.4426 17.5676 11.4235 12.162 10.9243 10.6522 10.5689 10.3913 10.0601 10.8368 9.72252 9.35171 9.25955 9.49633 9.15017 8.71893 8.82482 9.34799 8.81374 8.66286 8.60579
threshold=6.5000000000000009 -2.4999999999999996 -1.0000000180025095e-35 20.500000000000004 154.50000000000003 4.2767527743043905 1357.5000000000002 6.5000000000000009 3.5166239783080249 1.4708693970125208 16.500000000000004 5.1231625753967922 9.5000000000000018 5.1231625753967922 0.57742134168118608 68.500000000000014 6.5000000000000009 12.500000000000002 26.500000000000004 0.0052875105715264248 16.500000000000004 0.093343190550579477 0.0022177867580079375 10.500000000000002 0.020411272370008334 0.94463601532567065 0.38300607121369584 1.5191502057336581 0.0051189080245174793 -14.499999999999998
decision_type=10 10 10 10 10 8 10 10 8 10 10 10 8 10 8 10 8 10 10 10 10 8 10 10 10 10 10 8 8 10
left_child=1 5 6 4 7 9 16 -3 14 24 17 23 -13 -4 15 19 -2 -11 -19 21 -12 -5 -23 -7 25 26 -1 29 -16 -26
right_child=2 3 13 8 -6 11 -8 -9 -10 10 20 12 -14 -15 28 -17 -18 18 -20 -21 -22 22 -24 -25 27 -27 -28 -29 -30 -31
leaf_value=-0.014369856805479997 0.11088782315709707 -0.11367420398931792 0.055209519391171837 0.00059926553759734758 0.045447590371667242 -0.02851148043595075 -0.034232108608902509 0.0089929638902091682 -0.0084716747044314283 0.0038859702510711403 0.0032566376227737438 -0.03231520963486894 0.11859172881695762 4.2250012519794795e-05 0.028043340081200102 0.084424371511042595 0.016217188124963318 -0.015638193768266372 -0.11716413069711773 0.031436374773341984 0.12243007820668457 -0.025714063808219358 -0.15546106857308806 -0.14039585397668031 -0.065682570013426256 0.019527953312391072 -0.038086239384053991 -0.043565874500913947 0.0026133669159197014 0.010398791591078572
leaf_count=8769 63 40 7123 1207 2270 6508 307 7829 7203 3439 48 45 49 521 2069 108 2299 792 46 323 74 906 39 30 131 486 1183 208 1945 1780
internal_value=0 -0.032103 0.299479 0.0440298 0.139749 -0.117841 0.128021 0.0826564 -0.0243127 -0.0808924 0.010117 -0.274838 0.445288 0.499507 0.0629748 -0.0468362 0.188405 -0.0124021 -0.213354 -0.0720323 0.786409 -0.126996 -0.300723 -0.297042 -0.125929 -0.156623 -0.171682 0.0139528 0.159234 0.0675991
internal_count=57840 47527 10313 23939 10139 23588 2669 7869 13800 16956 4399 6632 94 7644 6597 2583 2362 4277 838 2475 122 2152 945 6538 12557 10438 9952 2119 4014 1911
shrinkage=0.1


Tree=30
num_leaves=31
num_cat=0
split_feature=18 41 16 33 24 12 32 15 39 13 48 1 37 38 27 36 53 36 36 15 48 6 49 47 40 41 16 39 34 25
split_gain=75.3744 50.7538 29.0741 23.5719 15.8174 12.5363 11.686 11.411 10.747 16.3827 10.5527 13.4582 10.4973 10.178 10.009 9.83147 11.0414 10.4834 9.46941 11.6715 8.56662 8.54838 8.18457 8.2382 8.16627 7.97429 16.808 9.47968 7.91583 7.70477
threshold=-1.0000000180025095e-35 598.50000000000011 7.7942121344793387 31.500000000000004 5.5000000000000009 11.500000000000002 8.5000000000000018 12.500000000000002 0.089808138824392036 10.500000000000002 0.027959852812737145 6.8166666666666673 0.07408748357336338 0.0058542297366767594 0.5656609705924126 0.77112569270215892 318.50000000000006 0.84887903630583916 0.86340130614420907 15.500000000000002 0.0033579598758750094 -2.4999999999999996 0.05269328068118715 0.85697518443997323 0.24467120181405896 81.500000000000014 4.354079494033269 0.21821434379573915 88.500000000000014 5.4292863247575527
decision_type=10 10 8 10 10 10 8 10 10 10 10 8 10 10 8 10 10 10 10 10 8 10 10 10 10 10 10 10 10 8
left_child=2 3 6 5 7 12 8 22 9 -1 -3 -12 18 -14 28 20 -17 -18 -2 -20 -8 -9 -4 -24 -10 26 27 -5 -15 -11
right_child=1 10 4 25 -6 -7 15 21 24 29 11 -13 13 14 -16 16 17 -19 19 -21 -22 -23 23 -25 -26 -27 -28 -29 -30 -31
leaf_value=-0.01745638948995764 -0.0049634207061594274 0.064235663613077629 -0.040683877553356812 0.055740899225804996 -0.0085511946992386702 0.077567863644886215 0.024013546784103779 -0.015422952139654004 -0.0094491834866754134 0.013638168858415903 -0.31531165048587217 0.024447621575652868 0.0045901818298103424 0.038334514745536286 0.0030782036897664439 -0.0083189424925069425 -0.18230309270526521 -0.024203016692542007 0.041010748463270595 0.0024012469205913455 0.0051115322787764796 0.10864221287593573 -0.017509618429166943 0.16531588355984486 -0.086439778484559512 0.050194273961939533 -0.17609706844179579 -0.13251682367263573 0.10574915763013081 -0.034506708132306385
leaf_count=1417 5510 4750 3903 155 11110 463 1498 3301 6095 3165 26 1160 2019 1115 661 454 39 48 971 1462 5522 39 62 32 67 2303 33 23 266 171
internal_value=0 0.155606 -0.0539855 0.0995701 -0.134386 0.0639454 0.00179628 -0.256265 -0.0430492 0.0350488 0.543758 0.180187 0.0543589 0.172708 0.324077 0.0698813 -0.22136 -0.963377 0.00543409 0.139495 0.092092 -0.136197 -0.381308 0.479747 -0.102686 0.424067 -0.0835726 0.28992 0.46526 0.113277
internal_count=57840 20917 36923 14981 18447 12467 18476 7337 10915 4753 5936 1186 12004 4061 2042 7561 541 87 7943 2433 7020 3340 3997 94 6162 2514 211 178 1381 3336
shrinkage=0.1


Tree=31
num_leaves=31
num_cat=0
split_feature=12 23 18 32 48 16 21 6 53 36 37 21 31 19 49 12 16 39 27 53 23 16 27 48 39 38 43 18 53 4
split_gain=64.1286 37.7668 23.6253 20.4245 13.9051 13.8946 18.2261 12.3573 11.6124 12.7133 11.2197 11.1877 10.9907 11.7088 10.6401 10.6254 20.3562 10.5967 10.5777 10.552 10.5116 10.3341 14.4632 11.9009 10.7037 10.7836 16.5176 10.2549 11.7363 9.36995
threshold=6.5000000000000009 13.500000000000002 -1.0000000180025095e-35 10.500000000000002 0.077007793968146401 3.5338495158856742 20.500000000000004 -3.4999999999999996 45.500000000000007 0.49618231625575571 0.22961896322552064 1357.5000000000002 16.500000000000004 -7.4999999999999991 0.026492896360446033 10.500000000000002 3.7595115588806398 0.42859921097960779 2.3118415502977077 396.50000000000006 16.500000000000004 4.1849595141819345 -0.19212578874575184 0.0057366861601006605 0.53910274728327745 0.051449579831932789 1.5000000000000002 -11.499999999999998 67.500000000000014 0.40824829046386307
decision_type=10 10 10 10 10 10 10 10 10 10 10 10 10 10 10 10 10 10 10 10 10 10 10 10 10 10 10 10 8 10
left_child=1 7 11 4 12 14 -7 27 10 29 -8 -2 13 -3 -5 16 -4 -18 -14 -16 -6 22 -19 -24 25 -23 -27 28 -1 -10
right_child=2 3 15 5 20 6 8 -9 9 -11 -12 -13 18 -15 19 -17 17 21 -20 -21 -22 24 23 -25 -26 26 -28 -29 -30 -31
leaf_value=-0.013325132051090495 0.016770396025005265 -0.021145060375437452 0.056036677532478513 0.02657122387941864 0.0031912060621176485 0.1255647329933994 -0.16711513148524415 0.041441753820626717 0.011169790962611295 -0.033898864656846682 -0.031948456001288775 -0.030807563293748914 0.010486704495716303 0.00046824960242361545 0.0064144574808386746 0.065111810755265995 0.018279764438293721 0.03300494614873014 -0.019479539017540608 -0.084296930728146202 -0.023001280783885653 -0.020430310461754947 -0.40838698937085099 -0.09718930611452721 0.039795923772631324 -0.49133907411176792 -0.047645636495529865 -0.0098155173432455042 -0.04662144416231416 0.10175825324466713
leaf_count=2410 2362 1643 2669 4912 1208 46 38 215 703 394 290 307 8116 5891 1156 3662 870 44 640 114 2097 88 38 34 192 20 27 15767 1805 82
internal_value=0 -0.0269077 0.259795 0.0273008 -0.00853817 0.143826 -0.0483155 -0.115151 -0.0976041 0.0215879 -0.454143 0.11259 0.0200539 -0.0399487 0.206687 0.445182 0.310525 -0.041157 0.0797944 -0.00127411 -0.13856 -0.532874 -1.5419 -2.55969 -0.192756 -0.997338 -2.42352 -0.122918 -0.262779 0.193753
internal_count=57840 47527 10313 27330 19595 7735 1553 20197 1507 1179 328 2669 16290 7534 6182 7644 3982 1313 8756 1270 3305 443 116 72 327 135 47 19982 4215 785
shrinkage=0.1


Tree=32
num_leaves=31
num_cat=0
split_feature=18 12 16 33 37 25 36 32 41 40 40 6 27 53 18 40 6 1 13 16 26 48 47 31 27 48 48 33 35 52
split_gain=55.1885 48.2651 24.5141 19.903 17.5346 14.4267 13.9817 14.6746 12.8386 14.0696 15.0402 12.7269 10.3354 10.1476 9.41996 9.27464 9.21221 11.0121 9.08453 9.04167 15.8118 13.7864 8.66199 8.29306 8.09124 8.0494 8.30043 15.9619 9.86345 8.99478
threshold=-1.4999999999999998 9.5000000000000018 3.5166239783080249 27.500000000000004 0.0015674943921536834 0.5643327514082016 0.95559347743648093 17.500000000000004 31.500000000000004 0.034536976794621567 0.022745319794022813 -1.0000000180025095e-35 1.1654652690875207 40.500000000000007 -6.4999999999999991 0.33420593368237356 -2.4999999999999996 19.358974358974361 2.5000000000000004 1.8971835497770528 1.4571490234607813 0.018873012965337572 0.74967700258397951 311.50000000000006 -0.23321424117083117 0.22238072594705979 0.1669510807736064 9.5000000000000018 51.500000000000007 0.010363595748885243
decision_type=10 10 8 10 10 8 10 10 10 10 8 10 10 10 10 10 8 8 10 10 10 10 10 10 10 10 10 10 10 8
left_child=4 2 3 5 8 -2 7 19 14 10 13 12 15 24 -1 -4 17 -5 -6 21 -21 -7 -23 -22 -10 26 28 -28 29 -20
right_child=1 -3 11 16 18 6 -8 -9 9 -11 -12 -13 -14 -15 -16 -17 -18 -19 25 20 23 22 -24 -25 -26 -27 27 -29 -30 -31
leaf_value=-0.024421299673883307 -0.00088725869260056201 0.051604721720463813 -8.4727004694724624e-06 0.0046321512349356865 -0.063158646489356707 0.034013661897158487 0.057447619968604716 0.036114580475969327 0.055830671704325797 -0.073681138922769188 0.17618800421156139 0.04031190111153593 -0.028067751607608826 -0.0062919214809875742 -0.010362331183824647 -0.096924102838280124 0.048404055157793946 -0.22616072818764785 0.0027455438334308465 -0.066307022628030787 -0.0053637586133986268 0.078929737376407114 -0.033373656060361079 0.073481260322044148 0.0076796029923967757 -0.01885573829736828 0.014452103429857777 0.1385320100880576 -0.093097999001895207 -0.14750786827208459
leaf_count=7728 3242 5051 8937 243 185 1103 776 2512 209 135 23 451 865 4147 6920 47 2667 26 8590 263 889 43 452 222 721 974 287 61 50 21
internal_value=0 0.0953815 0.0638486 0.159037 -0.0659911 0.108912 0.205832 0.151125 -0.114716 -0.0255686 -0.00674749 -0.0122354 -0.0285234 -0.0150525 -0.16259 -0.00588065 0.423106 -0.207117 0.00491192 0.0353851 -0.135839 0.17106 -0.204445 0.0384588 0.192959 0.011816 0.0314592 0.369933 0.0182925 0.0240883
internal_count=57840 27789 22738 12438 30051 9502 6260 5484 19883 5235 5100 10300 9849 5077 14648 8984 2936 269 10168 2972 1374 1598 495 1111 930 9983 9009 348 8661 8611
shrinkage=0.1


Tree=33
num_leaves=31
num_cat=0
split_feature=18 41 18 33 22 16 16 23 53 12 36 48 6 33 40 31 53 49 21 48 33 8 37 36 23 22 39 32 26 27
split_gain=46.4675 36.2376 18.8265 16.834 13.173 10.953 10.7178 9.247 9.82985 9.077 8.97965 8.86796 9.7034 13.5499 23.4486 22.5601 16.9165 8.68721 11.1001 8.65528 15.0634 12.2725 12.077 10.5302 8.25564 8.50511 11.8176 11.9997 9.27686 8.74002
threshold=-1.0000000180025095e-35 598.50000000000011 -7.4999999999999991 31.500000000000004 2.5000000000000004 4.7880057688665758 5.0929096698643379 7.5000000000000009 5.5000000000000009 11.500000000000002 0.054019314944764828 0.027959852812737145 -1.0000000180025095e-35 92.500000000000014 0.02106495747565636 253.50000000000003 681.50000000000011 0.0014496255980274728 1251.5000000000002 0.02502847380410023 113.50000000000001 4.5000000000000009 0.043486935702140954 0.91914054303579695 16.500000000000004 18.500000000000004 0.10307310930982924 45.500000000000007 0.39669915274738804 2.1958993310546049
decision_type=10 10 10 10 10 8 10 10 10 10 10 10 8 8 10 10 10 10 10 10 10 10 10 8 8 8 10 10 10 8
left_child=2 3 4 9 -1 19 11 8 -6 24 -9 -3 13 14 16 -16 -13 18 -8 21 -21 22 -4 -24 -2 26 29 -28 -27 -26
right_child=1 6 5 -5 7 -7 17 10 -10 -11 -12 12 -14 -15 15 -17 -18 -19 -20 20 -22 -23 23 -25 25 28 27 -29 -30 -31
leaf_value=-0.031463276659801906 0.01358228327049482 0.062829191199417531 0.001535538187107662 0.036439110616455488 -0.032772320687179828 -0.0067121152209889418 -0.257281368411103 0.002693870779624641 0.013977276668753133 0.071041774387889375 -0.02088693106842332 0.035430117374603491 0.041408356478503355 0.083131996294675548 -0.0047048212500725595 -0.63676747390767208 -0.42075874428042292 0.011574969001240765 0.10647147499408041 -0.0066703117925980705 0.08370748050077606 -0.064931098693656319 0.017039600411312791 0.1379649226762987 -0.005703499250918836 -0.0020498935030073507 -0.058183059811445073 0.03480849758143395 0.022005461060143807 0.090166648342024328
leaf_count=3795 4560 4538 5408 2514 520 11931 46 1682 1774 463 4073 121 818 112 22 31 21 203 24 4292 101 112 3201 34 444 4199 667 223 1832 79
internal_value=0 0.124558 -0.0421949 0.0787287 -0.141578 -0.0126112 0.47424 -0.0897552 0.0574128 0.049252 -0.145342 0.526622 0.171398 -0.560372 -1.27587 -3.95689 -0.302699 -0.306656 -1.55527 0.0281098 -0.0490044 0.0678481 0.0770289 0.183431 0.0416763 -0.0072663 -0.219528 -0.429439 0.0267237 0.126463
internal_count=57840 20917 36923 14981 11844 25079 5936 8049 2294 12467 5755 5663 1125 307 195 53 142 273 70 13148 4393 8755 8643 3235 12004 7444 1413 890 6031 523
shrinkage=0.1


Tree=34
num_leaves=31
num_cat=0
split_feature=12 18 14 41 27 18 48 47 39 26 13 16 35 22 36 43 23 39 25 36 38 23 37 27 50 47 40 25 14 47
split_gain=40.036 27.404 17.0073 19.9309 13.1834 13.1831 12.7487 12.2642 13.5834 10.1817 12.7212 10.0419 9.86765 9.80627 9.59612 9.19695 11.3699 9.14457 9.37861 10.7216 12.7662 13.8497 9.02928 13.1572 8.64043 18.0966 9.48267 9.46828 9.06364 10.5081
threshold=8.5000000000000018 -3.4999999999999996 19.500000000000004 285.50000000000006 2.7616764334066377 -1.4999999999999998 0.19576423128641868 0.92474803653891524 0.21174190708535709 0.11997610756898792 20.500000000000004 5.6494836539777706 17.500000000000004 6.5000000000000009 0.75008038585209014 1.0000000180025095e-35 16.500000000000004 0.89299345692475474 4.1058773024893283 0.5057144723093 0.030218814916636427 22.500000000000004 0.0097680243306100568 1.9720802464963494 0.016139886250162813 0.9795657689658922 0.096372377622377631 0.49086355515388319 14.500000000000002 0.82799123347715919
decision_type=10 10 10 10 10 10 8 10 10 10 10 10 10 8 10 10 10 10 10 10 10 10 10 8 10 8 10 10 10 10
left_child=1 6 3 13 5 -2 24 12 9 -9 -11 -8 -4 -3 15 16 -10 18 -17 20 -20 -22 -15 -24 26 27 28 -26 -1 -30
right_child=4 2 7 -5 -6 -7 11 8 14 10 -12 -13 -14 22 -16 17 -18 -19 19 -21 21 -23 23 -25 25 -27 -28 -29 29 -31
leaf_value=-0.010998382234529114 0.0039981187354079448 -0.027241757187493099 -0.01154371378293912 0.034101923154031891 -0.15158274122584184 0.042722994164267808 -0.02227226400495913 0.0004990819430470149 -0.094303019319636083 0.01235155906005591 0.050110332556626974 0.087914896707186996 0.072160840403024049 0.0022494471118516173 -0.091708402037862735 0.0088661457560446685 -0.010850368628731899 0.12192072383054381 0.041102671266161961 -0.13939970021964684 0.005488098521686865 -0.22960361391120432 0.022110585089321622 -0.02132434493779832 -0.0098627713744874543 0.22654639227814755 -0.047888707291897578 0.038460499490658141 0.061800116705885526 0.00039166265785439165
leaf_count=8805 582 406 5792 2796 31 6131 6612 2157 73 2403 949 39 127 6168 71 3028 2586 33 128 58 28 44 3412 414 598 22 343 319 144 3541
internal_value=0 -0.0143289 0.0295891 0.0959011 0.298257 0.315106 -0.0905166 -0.0197777 0.0288611 0.113612 0.212734 -0.209413 -0.104444 0.0592267 -0.0558729 -0.0440924 -0.136795 0.0622314 0.0440455 -0.447223 -0.129341 -1.01517 0.0745586 0.168641 -0.0547128 0.163018 -0.0719542 0.112053 -0.0610282 0.028109
internal_count=57840 51096 30673 13196 6744 6713 20423 17477 11558 5509 3352 6651 5919 10400 6049 5978 2659 3319 3286 258 200 72 9994 3826 13772 939 12833 917 12490 3685
shrinkage=0.1


Tree=35
num_leaves=31
num_cat=0
split_feature=18 41 16 33 50 16 27 52 18 13 49 40 42 15 40 37 32 25 47 43 31 37 32 48 18 22 1 6 33 35
split_gain=34.0898 28.7759 13.5415 13.3053 12.5115 9.0756 8.5499 8.2898 8.33784 15.7448 10.9286 8.12059 8.09043 8.66761 11.7456 11.1158 9.09634 8.55681 8.18768 8.93446 8.06572 8.7046 11.9378 8.03717 7.98705 7.86705 7.71772 7.71322 9.80999 11.458
threshold=-1.0000000180025095e-35 598.50000000000011 1.1454972243679029 31.500000000000004 0.0052110488355926318 5.0929096698643379 2.680295396546398 0.0038387857353374601 -3.4999999999999996 18.500000000000004 0.020982689922878803 0.24467120181405896 7.5000000000000009 8.5000000000000018 0.028577808970841573 0.073148944986294401 13.500000000000002 1.2179096421008129 0.9778289886325997 6.5000000000000009 130.50000000000003 0.53131537656903782 31.500000000000004 0.027959852812737145 -4.4999999999999991 15.500000000000002 12.348484848484853 -1.0000000180025095e-35 92.500000000000014 19.500000000000004
decision_type=10 10 10 10 10 10 10 10 10 10 10 10 10 10 10 10 10 10 10 10 10 10 10 10 10 10 8 8 10 10
left_child=2 3 4 -2 7 23 11 8 10 26 -1 12 -4 15 -15 16 -14 -18 19 24 21 22 -8 -3 -17 -26 -10 28 29 -25
right_child=1 5 6 -5 -6 -7 20 -9 9 -11 -12 -13 13 14 -16 18 17 -19 -20 -21 -22 -23 -24 27 25 -27 -28 -29 -30 -31
leaf_value=-0.016638253430898007 0.004189759252616861 0.058633084701217725 0.0067935163961108051 0.032758099007352555 0.013239855134670398 -0.028009381755838527 -0.011913685020659814 -0.1239353864769593 0.098189910812190959 -0.013504666325716303 0.006877600623416494 -0.057907995749636336 0.0045240422449126273 -0.026955005049931938 0.043435851735123883 -0.031169639665213762 0.085802711691628911 -0.069839213806640238 -0.060131887651101237 0.064503812668469176 -0.065064772197218512 -0.097571082045750296 0.089969744742865523 -0.012871936810163699 0.041099501243712665 -0.10154520503001173 0.0053326130469421307 0.037225489240539367 0.080181638900429536 -0.23035613857704709
leaf_count=13252 12467 4538 9390 2514 1423 273 608 35 38 3993 1457 101 307 1154 133 138 20 200 62 259 142 46 59 124 301 23 3782 818 112 71
internal_value=0 0.107805 -0.0360539 0.0677809 -0.0757116 0.431145 0.0176759 -0.0921541 -0.0900217 -0.0372569 -0.13674 0.0332149 0.0385038 -0.0720653 -0.199414 0.0581602 -0.189488 -0.553269 0.231862 0.296565 -0.186205 -0.0953388 -0.0334834 0.483245 0.114642 0.316968 0.0641077 0.141598 -0.490586 -1.02738
internal_count=57840 20917 36923 14981 23980 5936 12943 22557 22522 7813 14709 12088 11987 2597 1287 1310 527 220 783 721 855 713 667 5663 462 324 3820 1125 307 195
shrinkage=0.1


Tree=36
num_leaves=31
num_cat=0
split_feature=12 23 52 14 53 27 18 7 47 39 32 23 41 35 31 40 38 41 16 27 38 27 18 21 48 48 40 53 43 3
split_gain=30.1035 19.9416 12.9546 12.2475 16.2314 9.79389 10.7221 9.3984 8.83882 11.4499 10.6684 10.3436 8.77318 8.20982 8.63707 9.88201 8.79649 8.19978 13.2531 8.10662 7.86086 7.82917 7.76873 7.53484 8.40474 9.44195 8.12511 7.92429 7.42791 9.36291
threshold=8.5000000000000018 13.500000000000002 0.0091591213950368896 16.500000000000004 154.50000000000003 2.7616764334066377 -1.4999999999999998 -2.4999999999999996 0.92474803653891524 0.21174190708535709 4.5000000000000009 14.500000000000002 240.50000000000003 17.500000000000004 104.50000000000001 0.032281748851309751 0.10215581891543614 222.50000000000003 1.5275252316519468 0.1982534703291757 0.43113353235714175 5.0959657109906233 -1.0000000180025095e-35 659.50000000000011 0.046773107829525866 0.095299459990181648 0.007085922299629701 186.50000000000003 10.500000000000002 11.500000000000002
decision_type=10 10 10 8 10 10 10 10 10 10 10 10 10 10 10 8 10 10 8 10 10 10 10 10 10 8 10 10 10 10
left_child=1 7 3 4 28 6 23 -1 13 10 12 -11 17 14 21 16 -16 -10 -19 -20 -6 -5 -22 24 -2 -26 27 -25 -3 -30
right_child=5 2 -4 8 20 -7 -8 -9 9 11 -12 -13 -14 -15 15 -17 -18 18 19 -21 22 -23 -24 26 25 -27 -28 -29 29 -31
leaf_value=-0.0081519270023229957 0.042909846714673995 0.0040653343315373456 -0.11132839790569447 -0.0066752810979245989 0.031751862800667156 -0.12286882698736031 0.038582258199034353 0.068450418183224365 0.001925845705850644 -0.12567672517066958 0.025923501920399578 -0.0038930970122132524 0.038889171712317046 0.064610805043847322 -0.033945383893028362 -0.19246645037912041 0.045092934440658872 0.078498016930153153 -0.30422930916165841 -0.064328567131445316 -0.14283611262599669 0.093276510347945929 0.068725475778702055 -0.13669386925741062 -0.11212792852521061 0.049174892347516819 -0.10173158808382306 0.0090050181940026057 0.086265879091716388 -0.097926721553294571
leaf_count=20401 263 8817 55 3698 2944 31 6131 82 3871 32 2016 6984 560 132 1023 21 113 22 20 20 27 35 51 20 39 30 50 180 151 21
internal_value=0 -0.0122452 0.025421 0.02763 0.0915069 0.263981 0.279804 -0.0773775 -0.00967132 0.0239812 0.0950062 -0.046351 0.0380454 -0.0906071 -0.1023 -0.302806 -0.26795 0.00851411 -0.968638 -1.85836 0.293549 -0.0563839 -0.704263 0.0333224 0.249574 -0.420362 -0.249021 -0.0514366 0.0491134 0.609643
internal_count=57840 51096 30613 30558 12011 6744 6713 20483 18547 13525 6509 7016 4493 5022 4890 1157 1136 3933 62 40 3022 3733 78 582 332 69 250 200 8989 172
shrinkage=0.1


Tree=37
num_leaves=31
num_cat=0
split_feature=37 18 31 2 27 2 40 40 33 18 33 16 15 47 36 27 41 14 23 27 39 36 41 27 47 6 0 31 12 33
split_gain=26.9973 20.561 14.3426 12.9846 11.7917 20.1829 11.2086 14.0027 10.8699 10.0048 9.26085 8.83893 10.1882 10.0811 8.7037 8.29573 10.3958 12.7161 8.14507 8.10084 9.71858 7.92697 9.12825 8.56273 8.78238 7.55153 10.8352 25.0003 9.27629 7.47211
threshold=0.0021390398799392384 -1.0000000180025095e-35 644.50000000000011 4.5000000000000009 0.57649289949593741 7.5000000000000009 0.036099927858323062 0.022244714349977514 48.500000000000007 -5.4999999999999991 35.500000000000007 3.6590547166083485 4.5000000000000009 0.96001937515136848 0.43273973085323753 -2.57385138413346 34.500000000000007 21.500000000000004 5.5000000000000009 0.83000372570843184 0.92340096763096879 0.99012339657611093 244.50000000000003 0.65749692095917245 0.96297112449602529 -4.4999999999999991 1.5000000000000002 204.50000000000003 12.500000000000002 36.500000000000007
decision_type=10 10 10 8 8 8 10 10 10 10 10 10 10 10 10 8 10 8 10 8 10 10 8 8 10 10 8 10 10 10
left_child=3 15 4 -1 8 14 7 9 11 10 19 13 -13 -3 -6 16 -2 -18 -12 21 -21 23 -23 -5 -25 26 27 -14 -28 -27
right_child=1 2 -4 6 5 -7 -8 -9 -10 -11 18 12 25 -15 -16 -17 17 -19 -20 20 -22 22 -24 24 -26 29 28 -29 -30 -31
